{"type":"NeuralNetwork","sizes":[161,80,2],"layers":[{"weights":[],"biases":[]},{"weights":[[-0.16087967157363892,0.19830849766731262,-0.09342038631439209,0.07493623346090317,-0.1435963213443756,-0.03351879119873047,0.0667065978050232,0.11474446207284927,-0.09330479055643082,0.17064739763736725,0.00807941798120737,0.032399747520685196,0.1447676420211792,-0.1671193391084671,0.06411214172840118,-0.12501677870750427,0.11822763830423355,0.0671222060918808,-0.09838823229074478,-0.175459086894989,0.1161012202501297,0.12371119856834412,0.1462235301733017,0.015578440390527248,0.027983156964182854,0.18655209243297577,0.17079032957553864,-0.14214394986629486,0.017469029873609543,-0.13816262781620026,0.08125580847263336,-0.16621676087379456,-0.03524396941065788,0.1908486783504486,0.006273896899074316,0.06310386955738068,-0.03159531205892563,0.12437854707241058,0.051247488707304,0.13686171174049377,-0.15668456256389618,-0.016337914392352104,-0.11224577575922012,0.0021439832635223866,0.12102130800485611,-0.14821158349514008,0.07536928355693817,-0.030819259583950043,-0.1553298681974411,-0.14053407311439514,0.002050946932286024,-0.1948811113834381,0.099971704185009,-0.016016393899917603,-0.13294591009616852,-0.09593676030635834,-0.044542763382196426,-0.15333954989910126,0.037834569811820984,-0.1779734045267105,-0.14038632810115814,-0.05487413331866264,-0.06363722681999207,0.09323745965957642,-0.12715819478034973,0.06397876143455505,-0.18138492107391357,0.0038014291785657406,-0.08501362800598145,-0.13016146421432495,0.14884282648563385,-0.1848306953907013,-0.00529352156445384,0.12377677857875824,0.14063294231891632,0.056997232139110565,0.13454259932041168,-0.0075311060063540936,-0.02913263626396656,-0.08794732391834259,-0.023255212232470512,0.042620137333869934,-0.17772988975048065,0.09612376987934113,-0.05956825986504555,-0.09811382740736008,0.010753678157925606,0.07661772519350052,-0.19865716993808746,0.058740776032209396,-0.07361828535795212,-0.14869695901870728,0.12055058032274246,0.15860046446323395,0.17981980741024017,0.10059109330177307,-0.038055188953876495,0.13578364253044128,0.014208372682332993,-0.1518382579088211,-0.037206102162599564,-0.17862898111343384,0.19108524918556213,0.0813334584236145,0.09835179150104523,-0.12650251388549805,0.15047672390937805,0.08681940287351608,-0.18216019868850708,0.18940122425556183,0.17791248857975006,0.16370843350887299,0.17744888365268707,-0.19723965227603912,-0.0013079018099233508,0.12556464970111847,0.0009571429109200835,0.04180607572197914,-0.16476455330848694,0.09070248901844025,-0.057031381875276566,0.10154027491807938,-0.08033334463834763,0.04652998223900795,0.18669413030147552,-0.18594852089881897,0.10203590989112854,-0.16871888935565948,0.023493310436606407,-0.11146752536296844,-0.054326850920915604,0.19979993999004364,-0.01623794622719288,0.03187083825469017,0.1702229380607605,0.1546316295862198,0.15382374823093414,0.14568199217319489,0.12708808481693268,0.14293555915355682,0.04273665323853493,-0.06711103767156601,0.018643025308847427,0.007846103981137276,-0.14527399837970734,-0.15763258934020996,-0.00816367194056511,-0.1400897204875946,-0.10708630830049515,-0.17334483563899994,0.0075780716724693775,-0.032116036862134933,-0.08434903621673584,-0.12391973286867142,-0.07283144444227219,0.11608147621154785,-0.19948899745941162,0.019992908462882042,0.11404787003993988,0.15114825963974,-0.07210981845855713],[0.19951847195625305,-0.2226204127073288,-0.016600536182522774,-0.1651902198791504,-0.3455030024051666,-0.22597533464431763,-0.10465690493583679,0.10530580580234528,-0.029443999752402306,0.0360528901219368,0.011057810857892036,-0.08764451742172241,-0.17249304056167603,-0.1814620941877365,-0.2763088643550873,-0.18354149162769318,-0.23831531405448914,0.03788112848997116,-0.00553868105635047,-0.18158362805843353,-0.14670686423778534,-0.1474541574716568,-0.01131490245461464,0.008331866934895515,-0.1815049946308136,-0.05429511517286301,-0.1180228739976883,-0.19980213046073914,-0.006584860850125551,-0.07437209039926529,0.14935122430324554,0.0009334729984402657,0.09946562349796295,-0.10038907825946808,-0.07350824773311615,-0.21890105307102203,0.16377070546150208,-0.21384279429912567,-0.10402902960777283,0.1573949158191681,-0.2856276333332062,-0.18245674669742584,-0.24039413034915924,-0.04940304905176163,0.18650619685649872,0.17882899940013885,-0.05071717128157616,0.0945044457912445,-0.15637534856796265,0.08317631483078003,-0.16903844475746155,0.036630600690841675,0.14072264730930328,-0.07399888336658478,-0.16490697860717773,-0.21233397722244263,0.11958818137645721,-0.1042814776301384,0.05853377655148506,-0.03767715021967888,0.15491093695163727,0.04912882298231125,-0.13828088343143463,-0.20120516419410706,0.028116727247834206,-0.19390997290611267,-0.00712073827162385,0.05870573967695236,0.06901400536298752,-0.10942568629980087,-0.04525503143668175,-0.06560663878917694,0.021684369072318077,0.1988610476255417,-0.06260664016008377,-0.11807470768690109,0.17858606576919556,-0.01341431774199009,0.22908131778240204,-0.058899689465761185,0.13172481954097748,0.1286940574645996,0.13211371004581451,-0.03068048506975174,0.14195740222930908,0.13080759346485138,-0.15866076946258545,-0.02587057650089264,-0.16265079379081726,0.01108368206769228,0.1273646056652069,0.09307990968227386,-0.10310835391283035,0.05575074255466461,0.1732240468263626,0.08186657726764679,0.04192882403731346,0.21343083679676056,-0.05118848383426666,0.007494456134736538,-0.06401572376489639,-0.023343143984675407,-0.027651596814393997,0.10299482196569443,0.0889819785952568,0.2530962824821472,0.13232421875,-0.07275907695293427,0.03370623290538788,-0.059774577617645264,0.1733476221561432,0.25305894017219543,-0.022307736799120903,0.010850119404494762,0.2653108537197113,0.04639561101794243,0.06708189845085144,-0.0056602791883051395,0.10560530424118042,0.20913240313529968,0.14353790879249573,0.13198907673358917,-0.1602996587753296,-0.2375815361738205,-0.142105832695961,-0.22598549723625183,-0.08584421128034592,0.026553822681307793,0.05815863236784935,0.12765127420425415,-0.22220006585121155,-0.16281451284885406,-0.22180500626564026,-0.19046087563037872,-0.053531888872385025,0.09348250925540924,-0.18785615265369415,0.12795087695121765,-0.21334117650985718,-0.2180117517709732,-0.03987589851021767,-0.11276352405548096,0.08461478352546692,0.04349720850586891,-0.17948095500469208,-0.18158631026744843,0.006301109213382006,-0.0964183360338211,0.07948119938373566,0.22994327545166016,0.21123909950256348,-0.13370411098003387,0.12654981017112732,-0.0707646980881691,-0.026171835139393806,0.0006591873825527728,-0.10278656333684921,0.052773069590330124,-0.08813922852277756,-0.1619654893875122,0.10934458673000336],[-0.027903812006115913,-0.26892659068107605,-0.22541700303554535,0.08839245140552521,-0.0007491224096156657,-0.26520466804504395,-0.05229853838682175,-0.21133947372436523,0.08485428243875504,0.21877889335155487,0.03016412816941738,0.06011666730046272,-0.0822058767080307,0.006337161175906658,-0.2162032574415207,0.13582034409046173,-0.047002460807561874,0.11969815939664841,0.09474404156208038,-0.15957285463809967,-0.04269387945532799,0.10034369677305222,-0.2985766530036926,-0.05198558792471886,-0.15713262557983398,0.12783554196357727,0.049641337245702744,-0.1797974407672882,-0.16300269961357117,-0.03513077273964882,-0.18545617163181305,0.0709858313202858,-0.1529199779033661,0.031429924070835114,0.07644642144441605,-0.18795393407344818,-0.03942001238465309,-0.0995144248008728,0.17019498348236084,-0.19296172261238098,-0.023718129843473434,0.06542646884918213,0.09933797270059586,-0.2064051479101181,-0.004105539992451668,-0.16845600306987762,0.08922754228115082,-0.04224216565489769,0.018986733630299568,-0.17782118916511536,0.06256473064422607,-0.17863868176937103,-0.11535875499248505,0.03395834565162659,0.029769670218229294,0.07921022176742554,-0.005551625974476337,-0.14717072248458862,-0.15540364384651184,-0.07227963209152222,-0.10673295706510544,-0.1402665078639984,-0.12095130234956741,-0.07060425728559494,-0.06772883236408234,-0.024355795234441757,-0.11425409466028214,-0.12752877175807953,0.006789517588913441,0.043155375868082047,-0.014527633786201477,-0.09844105690717697,0.09546322375535965,-0.07368844747543335,-0.020577527582645416,0.19737692177295685,0.04289010539650917,0.18212217092514038,0.08884046971797943,-0.041713546961545944,-0.08931463211774826,0.04256527125835419,0.2246072143316269,0.0025912870187312365,0.16693471372127533,0.23664048314094543,0.005913174711167812,-0.0532698854804039,-0.0599931925535202,-0.003385048359632492,-0.09310313314199448,0.17931894958019257,0.12752635776996613,0.08608988672494888,0.25021520256996155,-0.04196830466389656,-0.008879438042640686,0.046966392546892166,0.000014524695870932192,-0.14810217916965485,0.2071046084165573,0.11747734993696213,-0.03817383199930191,0.014597048051655293,-0.012676278129220009,-0.05128706246614456,0.023566557094454765,0.10930951684713364,-0.1702340841293335,0.04279926419258118,-0.08246703445911407,0.14009162783622742,0.08276036381721497,0.07823003828525543,0.18945743143558502,-0.03904435411095619,-0.08259955048561096,0.04875237122178078,0.09747008234262466,0.1672656536102295,-0.007990103214979172,0.016840947791934013,-0.07114794850349426,-0.016779253259301186,-0.22103309631347656,0.02778041921555996,-0.029017573222517967,-0.22929318249225616,-0.2048802226781845,-0.11534705013036728,-0.11845723539590836,-0.06371179968118668,0.07844480872154236,-0.03601314499974251,-0.2348768562078476,-0.1274503469467163,-0.22488610446453094,-0.20220911502838135,0.032209884375333786,-0.010220901109278202,0.03931814059615135,-0.21548324823379517,0.12345433980226517,0.06276915967464447,-0.24193206429481506,0.14357203245162964,-0.10056324303150177,-0.1147984117269516,0.04083657264709473,-0.1529916226863861,0.08004424721002579,0.09255046397447586,-0.032945454120635986,-0.03277163207530975,-0.019499121233820915,-0.08173687011003494,-0.03615338355302811,-0.14542871713638306,-0.06089312210679054,0.08959122747182846,0.05805352330207825],[0.23372504115104675,0.034246791154146194,-0.13119405508041382,-0.18179349601268768,0.021963398903608322,-0.05388197302818298,-0.19474318623542786,-0.13284212350845337,-0.1545199453830719,-0.14620772004127502,-0.15942776203155518,-0.0831344872713089,-0.09320437163114548,-0.2233944684267044,0.051448460668325424,-0.0043489146046340466,0.010581213049590588,0.15883435308933258,0.10008922219276428,-0.000022775308025302365,-0.21309390664100647,0.041103579103946686,0.08630537241697311,-0.026531901210546494,0.14966025948524475,-0.07324303686618805,0.026479247957468033,-0.14459672570228577,-0.13021504878997803,0.03840029612183571,0.10501348227262497,0.014697667211294174,-0.04888249188661575,-0.07253488153219223,0.054793357849121094,0.13712267577648163,-0.03761974722146988,0.11942943930625916,0.09025419503450394,0.013818459585309029,-0.09803006798028946,-0.013976073823869228,-0.22003597021102905,0.18209685385227203,-0.0024747157003730536,0.07813239097595215,0.11221648752689362,-0.1837739795446396,0.18007531762123108,-0.03759005293250084,0.08224734663963318,-0.0948755219578743,-0.0601964071393013,0.1633884608745575,-0.11021379381418228,0.14350418746471405,0.006390669383108616,-0.031249849125742912,0.10640137642621994,0.10217173397541046,0.14887206256389618,-0.12210102379322052,0.05739559605717659,-0.015965914353728294,0.08088751137256622,-0.12006634473800659,0.16730977594852448,0.037003256380558014,0.1325271725654602,0.07152321934700012,0.058910708874464035,0.00036220840411260724,0.17753203213214874,-0.18126434087753296,0.12720349431037903,0.18357586860656738,0.15166820585727692,0.08544517308473587,0.05699104815721512,-0.0020612147636711597,-0.03818425536155701,0.12725645303726196,0.050207506865262985,0.16910003125667572,0.159837543964386,0.180903822183609,-0.039672303944826126,0.20331640541553497,-0.12078747153282166,0.00739578902721405,0.1940511018037796,-0.16021107137203217,-0.023959318175911903,-0.11790178716182709,0.20915436744689941,-0.07065965235233307,0.04053323343396187,0.2059115320444107,-0.06091984733939171,0.13446377217769623,0.14805033802986145,0.07846789062023163,-0.10554424673318863,0.18842700123786926,0.11329703032970428,0.06769189983606339,-0.06532759219408035,0.01310973335057497,-0.051371537148952484,0.031639229506254196,0.10405273735523224,-0.1204410120844841,0.19604818522930145,-0.05502672865986824,0.217903271317482,-0.08849762380123138,-0.015809137374162674,0.16843563318252563,0.07866961508989334,-0.1290373057126999,0.17816971242427826,0.0017789701232686639,0.08459579199552536,-0.07112889736890793,-0.04254651069641113,-0.03309180960059166,-0.11289288103580475,-0.08890306949615479,-0.03421828895807266,0.10265402495861053,0.1272771805524826,0.07942920923233032,-0.10905081033706665,-0.009290664456784725,-0.2057180404663086,-0.23589755594730377,-0.0010514461901038885,0.016494153067469597,-0.06514180451631546,-0.12608006596565247,-0.01715577393770218,0.1210235208272934,-0.08782027661800385,0.1542617529630661,0.03644269332289696,-0.028963806107640266,-0.1275738626718521,-0.16784512996673584,0.02263936586678028,0.059109024703502655,0.13262659311294556,0.16899557411670685,-0.0360201895236969,-0.16703058779239655,0.15594638884067535,-0.049496304243803024,-0.13653214275836945,0.06831476092338562,0.10866823047399521,0.020833982154726982,0.17957447469234467],[-0.19754168391227722,-0.07738684862852097,-0.1749887764453888,-0.0561954602599144,0.07480539381504059,-0.08911769837141037,0.031872645020484924,-0.05137369781732559,-0.17599742114543915,0.11616665869951248,-0.024126064032316208,-0.09445249289274216,0.06361117213964462,-0.023663902655243874,-0.10805277526378632,0.08948218077421188,0.14987502992153168,0.0059010181576013565,0.13841906189918518,-0.042525291442871094,0.002728260587900877,-0.08282480388879776,0.1219409853219986,-0.1309911012649536,-0.18243877589702606,0.07138748466968536,-0.004381170030683279,-0.16091956198215485,0.0019716129172593355,0.0070871589705348015,-0.16777122020721436,0.09822448343038559,-0.1449144184589386,0.04862012714147568,-0.029031580314040184,-0.1019374281167984,-0.012783766724169254,-0.17601871490478516,0.15672224760055542,0.1794692575931549,-0.10557617992162704,-0.11739003658294678,0.1487545669078827,0.09639313817024231,-0.027474185451865196,-0.040654707700014114,0.10303215682506561,0.15066131949424744,0.13082557916641235,0.13682566583156586,-0.07614170014858246,0.026730094105005264,-0.0862276628613472,0.08880739659070969,-0.07441539317369461,0.03946259990334511,-0.16011933982372284,0.03408399596810341,-0.05267844349145889,-0.08415935933589935,-0.1512937992811203,-0.1911071538925171,-0.006520131602883339,-0.08597314357757568,0.15013350546360016,0.10524436831474304,-0.1492469757795334,0.0642436295747757,0.00015479141438845545,0.18732118606567383,-0.11723629385232925,0.06737624108791351,0.016968997195363045,0.1461450755596161,-0.0062003182247281075,0.027533434331417084,-0.18527725338935852,-0.016033366322517395,0.10002677887678146,-0.14028984308242798,-0.08025837689638138,-0.013983414508402348,0.012165538035333157,-0.07012518495321274,0.11598207801580429,-0.13415607810020447,-0.18436123430728912,0.10676141828298569,0.04419761151075363,-0.14108668267726898,-0.02970837615430355,-0.034951116889715195,0.06483837962150574,0.010399865917861462,0.036852575838565826,-0.14741432666778564,0.07128137350082397,0.06640942394733429,-0.15339025855064392,-0.10774938762187958,-0.0018742089159786701,-0.049826763570308685,-0.19036246836185455,0.12954093515872955,-0.08916924893856049,-0.15330488979816437,-0.18478550016880035,-0.20038734376430511,-0.06349622458219528,0.030736876651644707,-0.00575966015458107,-0.12391289323568344,0.026799101382493973,0.025792183354496956,-0.06752675771713257,-0.09501289576292038,0.08103696256875992,-0.16768044233322144,-0.18302758038043976,0.14381879568099976,0.004622566048055887,-0.07602109760046005,0.07292177528142929,-0.18363149464130402,0.11147193610668182,-0.0955703929066658,-0.12829549610614777,0.04901972413063049,-0.04404672607779503,0.15245984494686127,-0.07171692699193954,0.18346701562404633,0.012798297218978405,0.11173328757286072,0.11931098252534866,-0.1529705971479416,-0.1725105345249176,0.040339939296245575,0.12536406517028809,0.05166979134082794,-0.07671326398849487,-0.016645129770040512,-0.10079654306173325,0.08123116940259933,-0.05563771352171898,0.1916286200284958,0.1844281405210495,-0.16736234724521637,-0.04361861199140549,-0.03911567106842995,0.11805594712495804,0.007855072617530823,0.030926866456866264,0.07741721719503403,-0.15400655567646027,0.18821334838867188,0.0628533884882927,-0.00009850085916696116,-0.18563991785049438,-0.1668991893529892,-0.009540085680782795],[-0.23075395822525024,0.17622078955173492,0.21565279364585876,0.22738271951675415,0.22325679659843445,0.20818237960338593,0.15719465911388397,-0.08634355664253235,-0.13350722193717957,0.07653338462114334,-0.03503800928592682,-0.21926644444465637,0.09936436265707016,-0.028118932619690895,0.21283568441867828,0.09379099309444427,-0.07260967046022415,0.04920753464102745,0.21275895833969116,0.1766282469034195,0.13411635160446167,0.04214552789926529,0.10845491290092468,0.26099124550819397,0.1476593166589737,0.0203438438475132,0.13149455189704895,0.18431422114372253,0.2010297328233719,-0.14111147820949554,0.16233541071414948,0.23895755410194397,-0.08441834151744843,-0.02130814827978611,0.21370448172092438,0.08396491408348083,-0.02537684328854084,-0.04150877520442009,0.11256544291973114,0.12002687156200409,0.19105437397956848,-0.09636114537715912,0.24940697848796844,0.12026369571685791,-0.04760540649294853,-0.08223212510347366,0.010157596319913864,-0.024900102987885475,-0.061017509549856186,-0.06849650293588638,-0.11705430597066879,0.24287424981594086,0.011862391605973244,0.19681161642074585,0.06631340086460114,0.07045117020606995,-0.04072394594550133,0.21564322710037231,0.021819565445184708,0.11616217344999313,-0.0061075445264577866,0.02376362681388855,0.03713401407003403,0.021722301840782166,0.17820203304290771,-0.07515663653612137,-0.10558483004570007,0.20255805552005768,-0.20064252614974976,0.005733242258429527,0.1406128853559494,-0.10780751705169678,0.006603188347071409,0.0013495363527908921,-0.054232675582170486,0.03793581575155258,-0.22113658487796783,-0.21455690264701843,0.020619159564375877,-0.2982330322265625,0.054935310035943985,-0.033112265169620514,-0.3341172933578491,0.037694863975048065,-0.11532674729824066,-0.26654842495918274,-0.10486394912004471,-0.033318910747766495,0.12560339272022247,-0.31328025460243225,0.07415535300970078,-0.22104346752166748,-0.07987166941165924,0.06467092037200928,0.022101063281297684,0.08791403472423553,0.05472005531191826,-0.1295771598815918,-0.1927996426820755,0.0007706804317422211,-0.31017234921455383,-0.021617861464619637,-0.17442558705806732,-0.10513019561767578,-0.19543027877807617,0.000007635710971953813,0.1410840004682541,0.11041326075792313,-0.2104840874671936,0.1142876148223877,0.041774071753025055,0.02075807936489582,-0.06962928920984268,-0.08256889879703522,-0.11092958599328995,0.016651051118969917,-0.07961176335811615,-0.06607768684625626,-0.03904292732477188,-0.14887641370296478,0.1800718605518341,0.10408134758472443,-0.09941105544567108,0.1676216423511505,-0.08070418983697891,0.011694568209350109,0.21411816775798798,0.10382042825222015,-0.11877352744340897,-0.08071257174015045,0.08028611540794373,0.15821677446365356,0.21148774027824402,0.0063087656162679195,-0.03789661079645157,0.29084786772727966,-0.1185111552476883,-0.01769152842462063,0.013195033185184002,0.14509625732898712,0.21567001938819885,0.060417450964450836,0.12544231116771698,0.09315406531095505,-0.09645738452672958,0.12048131227493286,-0.1284019500017166,-0.23272395133972168,0.10949623584747314,0.09437403827905655,-0.07696158438920975,-0.13366158306598663,0.032860174775123596,-0.19693702459335327,0.11040374636650085,0.027845509350299835,-0.13136284053325653,0.02326567843556404,0.008308974094688892,-0.11257844418287277,-0.09867525100708008],[-0.0857035294175148,0.04306548461318016,0.04192730039358139,0.05993059277534485,0.10822347551584244,0.03618781268596649,-0.10030144453048706,0.14403943717479706,-0.12656757235527039,-0.18085001409053802,0.06828702241182327,0.032581765204668045,0.07765556871891022,0.06386196613311768,0.1414424628019333,0.020630959421396255,0.004242788068950176,0.07171410322189331,0.18418268859386444,0.005093737971037626,-0.08470866084098816,0.18526813387870789,-0.15125755965709686,0.19995750486850739,-0.12938620150089264,0.10974234342575073,-0.09451993554830551,-0.16345816850662231,-0.05855698138475418,-0.14303624629974365,0.08850393444299698,-0.06055426597595215,0.10111537575721741,0.15711745619773865,-0.09262004494667053,0.15931549668312073,-0.05941203236579895,-0.1550675928592682,0.18501867353916168,0.19086360931396484,0.14054791629314423,0.1326337456703186,0.08264296501874924,-0.03373272716999054,0.01862133853137493,0.09666769951581955,0.013615786097943783,0.18844835460186005,-0.09874746948480606,0.05601279065012932,-0.03872404247522354,0.2046286165714264,-0.06617964804172516,-0.11924605816602707,0.006497387308627367,0.21734020113945007,-0.15078215301036835,0.13711722195148468,-0.08329860121011734,0.005754996091127396,-0.04892818257212639,-0.026723802089691162,-0.1360456347465515,0.0917760506272316,-0.06737064570188522,0.12322905659675598,-0.17200125753879547,0.007827558554708958,-0.08665057271718979,-0.0506734661757946,-0.09773088246583939,-0.15711620450019836,-0.1261340230703354,0.08411026000976562,0.04787876456975937,-0.08186374604701996,-0.05821184068918228,-0.24392394721508026,-0.16289407014846802,0.13064886629581451,-0.09611710160970688,-0.22952866554260254,-0.0010016559390351176,0.061678141355514526,-0.12903231382369995,-0.10595183074474335,0.07192187011241913,-0.03275003284215927,0.1390341967344284,-0.1415703445672989,0.07398968935012817,-0.19776290655136108,-0.050356753170490265,0.1626884937286377,0.15121428668498993,0.11873645335435867,-0.15106172859668732,0.10683029145002365,-0.21937963366508484,0.04644514247775078,-0.18583673238754272,-0.10747914016246796,0.09063415974378586,0.05512142553925514,0.10047666728496552,-0.15650056302547455,-0.14277707040309906,-0.18835079669952393,0.05551555007696152,0.17806918919086456,-0.10865195840597153,0.16521596908569336,0.014788688160479069,-0.11404984444379807,-0.1604360193014145,-0.17614242434501648,0.007076133508235216,-0.08914284408092499,0.13396961987018585,-0.05416933074593544,0.18396906554698944,-0.19572222232818604,0.13614340126514435,-0.05327478423714638,-0.14941607415676117,0.21687360107898712,-0.07853366434574127,-0.08320321887731552,0.12577125430107117,-0.09089256078004837,-0.036768779158592224,-0.0477508120238781,-0.12228848785161972,0.01530715636909008,0.06974875181913376,-0.06393896788358688,0.032360102981328964,0.033625345677137375,-0.08065412193536758,0.0964774489402771,-0.12978778779506683,-0.1299138218164444,0.10053765028715134,0.004878494888544083,0.09067368507385254,0.012769429013133049,-0.14629872143268585,0.09480661898851395,-0.010493910871446133,-0.1017879843711853,0.03260526806116104,-0.21264155209064484,0.017253795638680458,-0.02667330764234066,0.1558798998594284,0.155328631401062,0.15317220985889435,0.09068510681390762,0.1768285185098648,0.0045607248321175575,-0.09512722492218018],[0.15199632942676544,0.014585569500923157,-0.1399901658296585,-0.09733058512210846,-0.17037229239940643,-0.0032878571655601263,0.02093380317091942,-0.16591231524944305,0.08576343953609467,0.15442630648612976,-0.20104487240314484,-0.16198749840259552,0.18413594365119934,-0.1106024831533432,0.1491064727306366,0.19785799086093903,0.020981358364224434,0.12289369106292725,0.14650794863700867,0.10115834325551987,-0.12289939075708389,0.1817278116941452,-0.0392560176551342,0.13252942264080048,0.19387225806713104,0.054972995072603226,-0.14375212788581848,0.1709306836128235,0.16032706201076508,0.022710449993610382,-0.07396648079156876,-0.1492970585823059,0.02941439487040043,-0.08673221617937088,0.15307381749153137,-0.1828409880399704,0.0612153634428978,0.19192500412464142,-0.03601999208331108,0.0510886088013649,-0.1478961706161499,0.12341877818107605,0.029514111578464508,0.0956207662820816,-0.06116674095392227,0.10476607084274292,0.12097811698913574,-0.15485870838165283,0.013358945958316326,0.07087507098913193,0.11172007024288177,-0.1966351568698883,-0.18281754851341248,0.10621149837970734,0.11825801432132721,0.18196751177310944,0.16228584945201874,0.2004518359899521,0.06822940707206726,-0.18252922594547272,0.041819095611572266,0.14441326260566711,0.163034588098526,-0.19791045784950256,-0.09370815753936768,-0.05191657319664955,0.06626248359680176,-0.1597261279821396,-0.032072316855192184,-0.10280010104179382,0.13285037875175476,-0.003529909299686551,0.1559952348470688,-0.14954602718353271,-0.17618881165981293,0.08749222010374069,0.023508965969085693,0.13040868937969208,-0.16086098551750183,-0.11663726717233658,0.04134194925427437,0.15662996470928192,-0.17394623160362244,-0.17968471348285675,0.0567876473069191,-0.1914961040019989,-0.08500649780035019,0.016977891325950623,0.09587086737155914,-0.11915047466754913,0.07316578924655914,0.05786287784576416,0.08253981918096542,0.07816717773675919,-0.02783525548875332,0.06564203649759293,-0.013358726166188717,0.011240383610129356,0.13704846799373627,0.12779802083969116,0.12093938887119293,0.060314811766147614,-0.17311766743659973,0.14237244427204132,0.0370120145380497,0.1367485225200653,0.1560969054698944,0.16607506573200226,-0.03298838436603546,0.002414271468296647,-0.04507927596569061,0.009056465700268745,0.094365194439888,-0.16521310806274414,0.14053791761398315,-0.18331269919872284,0.042890921235084534,-0.15206491947174072,0.09188319742679596,0.015910372138023376,-0.18530616164207458,0.056407198309898376,-0.09956272691488266,-0.18907296657562256,-0.08647274225950241,0.1005399227142334,-0.04990103095769882,0.15938784182071686,0.18365542590618134,-0.03954286128282547,-0.11857473105192184,0.07784807682037354,0.040281206369400024,-0.18765698373317719,-0.010005415417253971,-0.07747789472341537,0.015876013785600662,0.1891350895166397,-0.03790798410773277,0.13223831355571747,0.10581492632627487,-0.10923068970441818,0.17573407292366028,-0.10707281529903412,-0.17387507855892181,-0.10963805019855499,0.07885374873876572,0.12441718578338623,-0.0634530708193779,-0.1371336430311203,0.024951860308647156,0.1605173796415329,-0.09661175310611725,-0.0881207287311554,-0.13101206719875336,-0.1600760668516159,-0.18958324193954468,0.18517357110977173,0.1508103460073471,0.03457392007112503,-0.019671685993671417],[-0.2823863923549652,0.03513525798916817,0.26255860924720764,0.10392700880765915,0.10924653708934784,0.10701749473810196,0.12207687646150589,-0.05834411457180977,-0.09276991337537766,-0.11143794655799866,-0.19577276706695557,0.072172611951828,-0.0597025565803051,0.1358310878276825,0.006377170328050852,0.17288902401924133,0.09246668964624405,0.12788039445877075,0.1117720901966095,0.03568382188677788,0.17306315898895264,-0.0036536341067403555,0.12719349563121796,0.06719783693552017,0.20517510175704956,0.15296794474124908,0.018966468051075935,-0.06787072867155075,0.006561632733792067,-0.02210632525384426,-0.12905731797218323,0.03505552560091019,-0.06611547619104385,0.1691027283668518,-0.06662862747907639,0.0709264799952507,0.06798014789819717,-0.07393792271614075,0.059933677315711975,0.09275342524051666,0.19510933756828308,-0.06567133963108063,0.15951886773109436,0.1569465696811676,0.03916693106293678,-0.022083455696702003,0.18328659236431122,0.06535619497299194,-0.14184634387493134,-0.10955888032913208,0.1388540267944336,0.13719093799591064,0.11496248841285706,0.07214026898145676,0.20248068869113922,0.12967823445796967,0.18027068674564362,-0.05947912484407425,0.10809224843978882,0.19163964688777924,0.15738844871520996,0.17215962707996368,0.16959653794765472,-0.03783898428082466,0.09414508938789368,0.14343789219856262,0.08636768162250519,0.1524391770362854,0.14378009736537933,-0.1464412659406662,-0.03764164447784424,-0.058985721319913864,0.12164022773504257,0.04755641520023346,-0.0800473541021347,-0.09430743753910065,-0.14866288006305695,-0.0992627814412117,0.04008939862251282,0.14458067715168,-0.22067666053771973,-0.24992065131664276,-0.03486160561442375,-0.13756591081619263,-0.172737255692482,-0.26896998286247253,-0.00746439304202795,-0.1421060860157013,0.09227408468723297,-0.21737486124038696,-0.07160073518753052,0.02356848679482937,-0.10336566716432571,0.1024608239531517,-0.1780405193567276,-0.10946813970804214,0.088463693857193,0.005986275617033243,-0.22151996195316315,0.0553954653441906,-0.06402675807476044,0.012054599821567535,-0.1685718297958374,0.16156117618083954,-0.12537869811058044,0.045522354543209076,0.1560269147157669,-0.11482690274715424,0.14268043637275696,-0.021505244076251984,-0.11520100384950638,-0.1446312814950943,-0.08610179275274277,0.13448815047740936,-0.0968291386961937,-0.0014031940372660756,0.11755455285310745,0.13443608582019806,-0.20203639566898346,-0.07840850949287415,-0.10443920642137527,0.026955924928188324,0.03554270789027214,0.019834430888295174,0.04049457609653473,0.16815806925296783,0.08953610062599182,-0.05817175284028053,0.09782972186803818,0.07145104557275772,-0.009652952663600445,0.25317561626434326,0.21277852356433868,0.13647514581680298,-0.0920645222067833,-0.06436056643724442,0.15593518316745758,0.15611568093299866,0.14858843386173248,-0.163053497672081,0.16212107241153717,0.17681904137134552,-0.009382270276546478,0.1603095978498459,0.01849490962922573,-0.01762961968779564,0.1567172408103943,-0.011212526820600033,0.030722277238965034,-0.02593890018761158,-0.14607572555541992,0.06728814542293549,0.13050472736358643,0.12888535857200623,-0.07136006653308868,-0.16066990792751312,0.022202786058187485,-0.14865407347679138,0.13725854456424713,0.08046919852495193,-0.02970052696764469],[-0.27965182065963745,-0.07519762217998505,0.2397257685661316,-0.11613578349351883,0.01481730304658413,0.08334332704544067,0.074027881026268,0.048693928867578506,-0.08159604668617249,0.07742755115032196,-0.23043100535869598,0.057365573942661285,0.11299720406532288,-0.028387054800987244,0.15777994692325592,0.1065511405467987,0.2103673219680786,-0.01508241705596447,-0.010138757526874542,0.03929263725876808,-0.1051485687494278,0.19834637641906738,0.24395009875297546,0.08913417905569077,0.08583570271730423,0.1513432413339615,0.05229523405432701,0.17563827335834503,-0.11451070010662079,-0.011484310030937195,-0.12678509950637817,-0.0010468862019479275,-0.04945722594857216,-0.12763230502605438,-0.015202696435153484,0.10525956004858017,-0.016490356996655464,0.13838118314743042,0.17749521136283875,0.1919199377298355,0.25092124938964844,-0.16871221363544464,-0.0904008075594902,0.0017694748239591718,-0.08904209733009338,0.12638521194458008,-0.13504305481910706,-0.1376909762620926,0.17094336450099945,-0.027507144957780838,0.18606606125831604,0.09406053274869919,0.05968989431858063,0.038185663521289825,-0.08475200086832047,0.02592410147190094,-0.008804213255643845,0.13821446895599365,0.015536614693701267,-0.12003234773874283,-0.03841446712613106,-0.12007337063550949,0.10885991901159286,0.18056197464466095,-0.010151389986276627,-0.034243836998939514,-0.12328580021858215,0.02538161538541317,0.07775075733661652,-0.017299754545092583,0.06308238208293915,0.07888227701187134,0.02797580324113369,-0.032562583684921265,0.13011936843395233,-0.004856075160205364,0.13750839233398438,-0.2613826394081116,-0.1928945630788803,-0.05116735398769379,0.11781583726406097,-0.06193901225924492,-0.030243640765547752,-0.07551398873329163,-0.253028005361557,0.07609959691762924,-0.04260966181755066,0.010934286750853062,-0.16650758683681488,-0.2667420506477356,-0.2002301663160324,0.0803523138165474,0.11555716395378113,0.10264167934656143,-0.07811792194843292,-0.12337040156126022,-0.12359955161809921,0.07626768946647644,-0.026623673737049103,0.007388681638985872,-0.031158844009041786,-0.022873956710100174,-0.060683295130729675,-0.010112354531884193,0.05886032059788704,-0.09213899821043015,-0.004097812343388796,-0.17735448479652405,-0.00835330132395029,0.13678252696990967,-0.05268648639321327,0.08869456499814987,-0.009959757328033447,-0.08001136779785156,-0.05181364342570305,0.09208156913518906,0.02585582621395588,0.05640418827533722,-0.06588603556156158,-0.0744505524635315,0.08080137521028519,0.07256026566028595,0.1398569643497467,0.11972591280937195,0.17059087753295898,0.20380671322345734,0.05450434982776642,0.21758706867694855,-0.15584203600883484,0.021775435656309128,-0.05484705790877342,-0.028239546343684196,-0.007260582875460386,0.17217782139778137,0.12924540042877197,0.18562084436416626,0.16215120255947113,-0.16066987812519073,-0.173499196767807,-0.027474496513605118,0.11771222203969955,0.083194799721241,0.1848914921283722,-0.0073441406711936,0.009978201240301132,0.23930589854717255,0.15941663086414337,0.05449844151735306,0.14119917154312134,-0.005664701573550701,-0.06328338384628296,-0.15877756476402283,-0.15436497330665588,0.12611809372901917,-0.055191781371831894,-0.2252688854932785,-0.16897518932819366,0.08779849857091904,0.13361488282680511,-0.0929986983537674,0.02562638185918331],[0.08751678466796875,-0.13030211627483368,-0.26180756092071533,-0.03714464232325554,-0.09482625126838684,-0.13705717027187347,-0.10059481114149094,-0.07672005891799927,0.19292694330215454,0.12833401560783386,-0.016040263697504997,0.04542237147688866,-0.13184402883052826,-0.21751835942268372,-0.0601058155298233,-0.13114571571350098,-0.12030845135450363,-0.10851035267114639,-0.24016611278057098,0.09073833376169205,-0.07055570930242538,0.0621139332652092,-0.23659566044807434,0.014910418540239334,-0.013507835566997528,0.037911199033260345,-0.17113642394542694,0.048085641115903854,-0.040666498243808746,-0.22705622017383575,0.037575144320726395,-0.22944006323814392,-0.19604937732219696,-0.2005060315132141,-0.033618465065956116,0.16638238728046417,-0.06989703327417374,-0.19267979264259338,-0.17191633582115173,0.11290358752012253,-0.3281652331352234,0.17270644009113312,-0.1582302749156952,-0.055111922323703766,0.16904589533805847,-0.004520817659795284,-0.19970132410526276,-0.00006487367500085384,-0.18744245171546936,0.08122207969427109,-0.24438607692718506,-0.042582012712955475,0.15175285935401917,-0.04020166024565697,-0.051061686128377914,0.028039725497364998,-0.21404007077217102,-0.18269048631191254,-0.1047242283821106,0.021626409143209457,0.15300239622592926,0.07399068772792816,-0.1760132908821106,-0.18871448934078217,-0.06837679445743561,-0.14557619392871857,-0.1443556249141693,-0.1598595231771469,-0.039261166006326675,0.012770405039191246,-0.21358844637870789,-0.060724157840013504,-0.1690874993801117,-0.058649349957704544,0.10607410222291946,-0.12597543001174927,-0.14440596103668213,0.14985644817352295,0.10608786344528198,0.14847242832183838,0.0318414643406868,0.09096942842006683,0.17575517296791077,0.12637245655059814,-0.1073606088757515,0.20712848007678986,0.1640307605266571,0.14335845410823822,-0.1623302549123764,0.07312718778848648,0.15148602426052094,0.04696957767009735,0.14490637183189392,0.2618875801563263,0.06492047756910324,0.031766146421432495,0.14847983419895172,0.1500522792339325,0.22211304306983948,-0.13320627808570862,0.11968939006328583,-0.053783249109983444,-0.13122807443141937,-0.1279963105916977,0.2981528341770172,-0.07574179023504257,0.06764215230941772,0.17516198754310608,0.21985095739364624,0.1315416693687439,-0.03777947276830673,-0.04803040996193886,0.04066648334264755,0.0503094419836998,0.33880993723869324,0.033590249717235565,-0.15315231680870056,0.030228011310100555,0.04000326991081238,-0.1143597811460495,-0.14987260103225708,0.19249224662780762,-0.01842634193599224,-0.11289244145154953,-0.1890043318271637,0.063631571829319,-0.2060946524143219,0.09736739844083786,0.11082538217306137,-0.2513444125652313,-0.11973533779382706,-0.14967036247253418,0.00833964068442583,-0.21243521571159363,-0.15988004207611084,-0.1470952033996582,0.031029289588332176,-0.18044744431972504,-0.047303371131420135,0.017682494595646858,0.11570603400468826,0.09409431368112564,0.025202475488185883,-0.25155964493751526,0.0990544930100441,-0.2479732185602188,0.22845038771629333,-0.004711025394499302,0.019232504069805145,0.008816642686724663,-0.09401125460863113,0.1552795022726059,0.2081357091665268,0.0701688751578331,0.1727801263332367,0.0037236912176012993,0.13127592206001282,0.17878063023090363,-0.00807221233844757,-0.04759546369314194,-0.012184584513306618],[-0.14971666038036346,0.07630357146263123,0.2384701669216156,-0.12738434970378876,0.13343065977096558,0.21447308361530304,0.15832915902137756,-0.13634957373142242,-0.1116769015789032,-0.01792966015636921,0.07276968657970428,0.14035195112228394,-0.19020606577396393,-0.11804719269275665,-0.06130242347717285,0.16707578301429749,0.145353302359581,-0.16821378469467163,0.1358339637517929,0.20870694518089294,0.07900044322013855,0.1745023876428604,0.12552189826965332,0.1682705283164978,-0.08964564651250839,0.11466848105192184,0.08574771881103516,0.19677962362766266,0.12708090245723724,-0.09423965960741043,0.14322786033153534,-0.09577661007642746,0.14780566096305847,-0.12031342089176178,0.11515895277261734,0.0760340765118599,-0.17707979679107666,-0.17943359911441803,0.18558675050735474,-0.0937819704413414,0.018580321222543716,-0.1831178218126297,-0.0813417136669159,0.20801220834255219,-0.09870259463787079,-0.11000751703977585,0.18326808512210846,-0.13627390563488007,-0.09072519838809967,0.1982976198196411,-0.07995743304491043,0.1829126924276352,-0.026710622012615204,0.1068226620554924,-0.09851791709661484,-0.10422033816576004,0.1917240172624588,0.18196918070316315,-0.007255743723362684,0.03485165163874626,0.18868209421634674,-0.07051055133342743,0.18315060436725616,0.13119959831237793,-0.0963808223605156,-0.11220535635948181,0.1334872990846634,-0.09580177068710327,-0.07649251818656921,0.191165953874588,-0.04489912837743759,0.1629372388124466,-0.15274964272975922,-0.16923624277114868,-0.21252602338790894,0.15848436951637268,-0.1863865852355957,0.07770708203315735,-0.18311336636543274,-0.008170834742486477,-0.12491187453269958,-0.2674424350261688,0.059187475591897964,-0.16057538986206055,-0.052776727825403214,0.050877645611763,-0.20773400366306305,-0.09786443412303925,-0.06894244253635406,0.10325756669044495,-0.09693372994661331,0.006853842176496983,-0.17165404558181763,0.05646675452589989,-0.17186784744262695,-0.21731100976467133,-0.22038327157497406,0.04753526300191879,0.04483136534690857,-0.09421953558921814,-0.24851784110069275,-0.2100655883550644,0.12429162114858627,-0.013403520919382572,0.08991769701242447,-0.25858670473098755,-0.18430189788341522,-0.1411137878894806,0.02037842757999897,-0.06216436251997948,0.1276918649673462,-0.18879374861717224,-0.17252986133098602,-0.1944340169429779,-0.07785355299711227,-0.010209771804511547,0.10987885296344757,0.13062721490859985,0.0540490448474884,0.010509607382118702,-0.04521957039833069,0.04834143817424774,0.10528489202260971,0.05976958945393562,-0.11651695519685745,-0.023139772936701775,0.15505996346473694,-0.16486774384975433,0.038051787763834,-0.14816489815711975,0.1264878809452057,-0.1141115203499794,0.07983773201704025,0.023075850680470467,-0.149302139878273,0.04258962348103523,0.21315670013427734,0.17721052467823029,0.1977871209383011,-0.14938871562480927,0.22534343600273132,0.06955938786268234,0.07412804663181305,-0.07608886808156967,0.2246774435043335,0.17490726709365845,-0.07407661527395248,0.023331906646490097,-0.17664116621017456,-0.16396141052246094,-0.0264047309756279,-0.15112800896167755,-0.048673368990421295,-0.08924519270658493,0.1810278594493866,-0.08202710747718811,-0.05968138203024864,-0.0007804601336829364,0.05084702745079994,-0.09953945130109787,0.0958867073059082],[0.1777106076478958,-0.13297581672668457,-0.15996764600276947,-0.21318703889846802,-0.15885493159294128,0.036377158015966415,-0.010045886039733887,0.14533598721027374,-0.12996803224086761,0.14453785121440887,0.14633305370807648,-0.10410061478614807,0.14315718412399292,-0.029729364439845085,0.022594965994358063,0.06748763471841812,-0.18563146889209747,0.17233972251415253,0.013322829268872738,-0.0636809691786766,-0.06794112920761108,0.13403478264808655,-0.13736076653003693,0.05700969696044922,-0.0752238929271698,-0.08671414107084274,-0.04369139298796654,0.12132856994867325,0.15819276869297028,0.1354946792125702,-0.1330091953277588,-0.07838603109121323,0.05430212989449501,0.026845658197999,0.15776890516281128,-0.02847140282392502,0.022367285564541817,-0.0405302569270134,-0.07995758205652237,0.05914987251162529,-0.226019948720932,-0.11968859285116196,-0.03156661614775658,-0.06714063882827759,0.15383967757225037,0.0432722382247448,0.05745512619614601,-0.003721591318026185,-0.11016242951154709,-0.09522947669029236,0.03865662217140198,-0.12726280093193054,0.10720643401145935,-0.16639775037765503,-0.16264507174491882,0.14845164120197296,0.014629232697188854,0.07997103035449982,-0.08141627162694931,-0.1585434377193451,-0.02233153022825718,-0.05499448627233505,-0.17721246182918549,-0.2003801017999649,-0.1328776329755783,-0.09351928532123566,-0.18005068600177765,-0.007111560553312302,0.02997550182044506,-0.17135955393314362,-0.16342833638191223,-0.11103811115026474,-0.11979318410158157,0.08459540456533432,-0.01713687740266323,-0.17439451813697815,-0.15056607127189636,0.23768563568592072,-0.10831762850284576,-0.14708103239536285,0.0002709871041588485,0.14805524051189423,0.1695074588060379,-0.08387299627065659,-0.008160131052136421,-0.10134528577327728,-0.0307934433221817,-0.09712699800729752,0.052557166665792465,-0.03619647026062012,-0.04999425634741783,-0.02397649921476841,-0.06890013068914413,0.11998841911554337,-0.03912946209311485,0.1907781958580017,-0.16613423824310303,0.11129739135503769,0.19041277468204498,-0.15026894211769104,-0.09515903145074844,0.06337741762399673,-0.07311607897281647,-0.041234854608774185,-0.12119394540786743,-0.07908177375793457,0.11035526543855667,0.1787465661764145,-0.07611164450645447,0.025793517008423805,0.031147761270403862,0.02039659209549427,-0.04341999813914299,0.17141501605510712,0.22915209829807281,-0.05295073986053467,-0.06133544072508812,-0.09397806972265244,0.19356012344360352,0.19692641496658325,-0.034857429563999176,0.08581778407096863,0.07178414613008499,0.1469302773475647,0.05501823499798775,-0.013411340303719044,-0.07890273630619049,0.13273142278194427,0.16907890141010284,-0.08081229031085968,-0.05277275666594505,0.16624568402767181,0.007822336629033089,-0.08549921959638596,-0.06960951536893845,-0.10115527361631393,-0.008877633139491081,0.024275075644254684,0.03001931682229042,-0.047001149505376816,-0.027830932289361954,0.08151901513338089,0.12962952256202698,-0.06057310476899147,-0.07366756349802017,0.17332309484481812,0.1973586231470108,0.2038774937391281,0.15061992406845093,-0.03251134604215622,-0.09592101722955704,-0.0775034949183464,0.08143644779920578,0.17002969980239868,0.005617561750113964,0.14835365116596222,0.06504830718040466,0.021331069990992546,0.009264404885470867,0.0693417489528656,-0.006097034551203251],[-0.10706751048564911,-0.1696527749300003,-0.11313028633594513,0.0701611340045929,0.061839133501052856,-0.14452441036701202,0.004658312536776066,-0.15697810053825378,-0.10141833126544952,0.17179743945598602,-0.138607457280159,-0.06381575018167496,0.08671700209379196,-0.15354503691196442,-0.0813843235373497,-0.13755729794502258,-0.0771484449505806,-0.20121923089027405,-0.07685767114162445,-0.20551007986068726,0.04639183357357979,0.01522704865783453,-0.17114253342151642,-0.2031727284193039,-0.08739957213401794,-0.013801677152514458,-0.18002372980117798,0.041750747710466385,-0.12113451212644577,-0.0191468708217144,0.1682872772216797,-0.25727349519729614,-0.04227786138653755,0.1637505739927292,-0.1967548429965973,-0.06715454906225204,0.14316785335540771,-0.14374755322933197,0.043117474764585495,-0.05332295969128609,0.0704791322350502,-0.20693984627723694,-0.06287268549203873,0.08556174486875534,0.17849314212799072,-0.056509245187044144,-0.10352901369333267,0.12220460921525955,-0.08373112231492996,0.15575562417507172,0.01802012510597706,0.04917611554265022,0.1397620588541031,-0.06757931411266327,0.028489423915743828,0.036487262696027756,0.002683573868125677,-0.04065786302089691,0.0066109816543757915,0.027411462739109993,-0.14175790548324585,0.04737008363008499,-0.13237975537776947,0.15243226289749146,-0.07040433585643768,0.04101250320672989,0.16025099158287048,-0.051686059683561325,-0.09697841852903366,-0.2100411206483841,0.0823158398270607,-0.0577290840446949,0.07777760922908783,-0.0932002067565918,0.08742545545101166,-0.05383797734975815,0.19070099294185638,0.238296240568161,0.2251906394958496,0.22010913491249084,0.1093309074640274,0.04206074774265289,-0.052200399339199066,0.14074786007404327,0.23292212188243866,-0.05304109305143356,-0.085899718105793,0.13217465579509735,0.16305850446224213,0.1479082852602005,-0.16464868187904358,0.065367192029953,0.17098048329353333,-0.0629231259226799,-0.1592681109905243,-0.07734847813844681,0.09962979704141617,0.17580759525299072,-0.07255131751298904,0.15442810952663422,0.18559837341308594,0.03351656347513199,0.03904525563120842,0.16032327711582184,0.12656155228614807,0.10043967515230179,0.07512436807155609,-0.10197513550519943,-0.03015921823680401,-0.08993320912122726,0.023749923333525658,0.012909802608191967,-0.028784656897187233,-0.11714613437652588,-0.09025973081588745,-0.07362495362758636,0.008187290281057358,0.18610186874866486,0.18201805651187897,0.2266705334186554,0.19007658958435059,-0.08044944703578949,-0.09649775177240372,-0.22689282894134521,-0.11328845471143723,-0.10239928960800171,0.1619734913110733,-0.006578437052667141,-0.0013209881726652384,-0.07612216472625732,0.06653400510549545,-0.11707433313131332,-0.05573152378201485,-0.18473464250564575,-0.10638324171304703,0.09980524331331253,-0.08916161954402924,-0.07942361384630203,0.16909904778003693,-0.12296681106090546,-0.14280712604522705,-0.05375777557492256,-0.16060452163219452,0.07392120361328125,0.01729663647711277,-0.10874349623918533,-0.02733340673148632,0.19609276950359344,-0.09132909774780273,-0.13505852222442627,0.011412907391786575,0.1947723776102066,0.0806012973189354,-0.16021478176116943,0.2027772217988968,0.12312718480825424,-0.01987527497112751,0.1906602680683136,0.10759223252534866,-0.18254916369915009,0.19321869313716888],[0.242778941988945,-0.3052893579006195,-0.2694530189037323,-0.24337127804756165,-0.1835615634918213,-0.01626037433743477,-0.08465392142534256,-0.06244325265288353,-0.05147131159901619,0.20728866755962372,0.0037971942219883204,-0.10199490189552307,-0.0700647309422493,-0.031433794647455215,-0.0697280764579773,-0.136408269405365,-0.04471375048160553,-0.16603101789951324,0.08850575983524323,-0.22596128284931183,0.060036446899175644,-0.26547783613204956,-0.2199835479259491,-0.05161965638399124,-0.06683411449193954,-0.06379744410514832,-0.09837730973958969,-0.10066375881433487,0.1373075246810913,-0.15231361985206604,0.12653091549873352,-0.2604023814201355,-0.1815548539161682,0.04580361768603325,-0.057660624384880066,0.07716096937656403,0.09055566042661667,0.15462802350521088,0.12779687345027924,0.08709733933210373,-0.1475314497947693,-0.09598176181316376,0.012701204977929592,-0.051647577434778214,0.13047365844249725,-0.06357549875974655,-0.05995622277259827,0.006346482317894697,-0.1821964830160141,-0.0921601951122284,0.03544331341981888,-0.15631139278411865,-0.04210710525512695,-0.14052297174930573,0.05184952914714813,-0.16155938804149628,0.10597354173660278,0.009805925190448761,-0.1695694774389267,0.04582110792398453,-0.05885633826255798,0.04794161021709442,0.055448051542043686,-0.051580287516117096,0.06383597105741501,-0.21709497272968292,-0.1134485974907875,0.012545517645776272,-0.14074374735355377,-0.17299741506576538,-0.16414445638656616,-0.17961886525154114,-0.17828543484210968,0.11749261617660522,0.05357981473207474,-0.10098456591367722,-0.07521028071641922,0.39193159341812134,0.22558091580867767,0.2680307924747467,-0.05002067983150482,0.2844398617744446,0.14802098274230957,0.22037851810455322,0.04282741993665695,0.10340167582035065,0.17034798860549927,0.12764596939086914,-0.044331904500722885,0.254388689994812,0.22501704096794128,0.21052655577659607,0.2701927721500397,0.17008550465106964,0.16158612072467804,0.18587137758731842,0.1451275497674942,0.2647830843925476,-0.022067338228225708,0.042729780077934265,0.2730551064014435,-0.03238151967525482,0.03749948740005493,-0.052456967532634735,0.03511176258325577,0.32597026228904724,0.021036239340901375,-0.09670930355787277,-0.0682767704129219,-0.022654006257653236,0.25257351994514465,0.212908074259758,-0.07168301939964294,-0.1154632419347763,0.05987607315182686,0.23019585013389587,-0.07363646477460861,0.2409873604774475,-0.18170228600502014,-0.012491825968027115,-0.14835932850837708,0.05985623598098755,-0.17276792228221893,-0.24270687997341156,0.05934955179691315,0.03926922380924225,-0.24436302483081818,-0.05991104990243912,-0.09535379707813263,-0.043014708906412125,0.11124864965677261,-0.07665663212537766,-0.2552977502346039,-0.17350545525550842,0.06727394461631775,-0.2902171015739441,0.06121078506112099,-0.007647452875971794,-0.2310083955526352,0.06288851052522659,-0.05506029725074768,-0.13240624964237213,-0.25192099809646606,-0.14084450900554657,-0.17696353793144226,-0.1574377864599228,0.05253879725933075,0.03012906387448311,0.1723669022321701,0.1580287367105484,0.16083815693855286,0.24226978421211243,0.10905405879020691,-0.1237090602517128,0.14896978437900543,0.00012601235357578844,0.004165405873209238,-0.1134747862815857,-0.05578914284706116,-0.07384240627288818,0.07865706086158752],[-0.04215602949261665,-0.18759088218212128,-0.216695636510849,0.07264304906129837,-0.3282298147678375,-0.06708721816539764,-0.0946122258901596,0.05011660233139992,0.21943314373493195,0.0975920781493187,0.24638962745666504,0.14849579334259033,-0.011315752752125263,0.08378762751817703,0.042093563824892044,0.06377556174993515,0.003924867138266563,-0.12090405076742172,-0.1262943148612976,-0.12759633362293243,-0.20881833136081696,-0.1683577299118042,-0.31247782707214355,-0.2111065685749054,-0.08653287589550018,0.1631612628698349,0.030743664130568504,-0.2039368450641632,0.03673918917775154,0.11988338828086853,0.015000265091657639,0.07028765976428986,-0.009322506375610828,-0.02405289188027382,0.11302487552165985,-0.18974703550338745,0.06773769110441208,0.18272517621517181,0.15637481212615967,-0.2000918984413147,-0.25600340962409973,0.14771488308906555,-0.23480083048343658,0.004876927938312292,0.0521177276968956,-0.16866789758205414,0.0002837121719494462,-0.08564437925815582,0.0057112304493784904,0.0773639902472496,-0.08237384259700775,-0.13985739648342133,-0.21047767996788025,0.1065346747636795,-0.0734197124838829,-0.056368641555309296,0.11343030631542206,-0.04281587153673172,0.15509961545467377,-0.14429356157779694,-0.10061852633953094,-0.16986246407032013,-0.14407704770565033,0.15292100608348846,-0.08141424506902695,0.14970846474170685,0.15114019811153412,-0.24282297492027283,-0.019514167681336403,-0.09999632835388184,0.0005578294512815773,-0.07115407288074493,-0.23791810870170593,0.10328440368175507,0.16321462392807007,-0.0428505465388298,-0.16046452522277832,0.011256108991801739,0.1745135337114334,-0.05004359781742096,-0.08087389171123505,0.1822616308927536,0.1371515393257141,0.052756667137145996,-0.025016456842422485,0.06088043376803398,-0.1058412715792656,-0.08872503787279129,-0.02172102965414524,0.2066059559583664,0.024872252717614174,0.204530730843544,0.018749931827187538,0.07019560039043427,0.23089660704135895,0.18082168698310852,-0.07086605578660965,-0.050787705928087234,-0.13601484894752502,0.05565992370247841,0.22676467895507812,-0.12201093882322311,0.016399117186665535,-0.02968129888176918,0.27179208397865295,0.2805335521697998,0.06488615274429321,-0.01892586424946785,0.19473189115524292,0.0966932401061058,0.154219850897789,0.19575227797031403,0.05602927505970001,0.1472177654504776,0.27563825249671936,0.1996849775314331,0.1397860199213028,-0.1512865573167801,0.13078375160694122,0.16830246150493622,0.13771012425422668,-0.14030814170837402,-0.0042570517398417,0.051242511719465256,-0.2224126160144806,-0.04159240797162056,-0.09902463108301163,-0.01966251991689205,-0.07302588224411011,-0.042359381914138794,-0.1808200478553772,-0.26488637924194336,-0.2532201409339905,-0.24012935161590576,0.02310909330844879,0.11500310897827148,0.0516001358628273,0.16245198249816895,-0.11433689296245575,0.13120168447494507,-0.05855948477983475,-0.11252347379922867,-0.2222980260848999,-0.14291447401046753,-0.12306780368089676,-0.11539243161678314,0.1265072077512741,0.04414049908518791,0.03681886941194534,0.014208882115781307,0.025236548855900764,0.09138036519289017,-0.0644381195306778,-0.07194539904594421,0.06669040024280548,0.19032356142997742,0.08562705665826797,-0.03057895600795746,-0.025883017107844353,0.15278536081314087,-0.15600833296775818],[-0.01301514357328415,-0.20464250445365906,0.14049795269966125,0.15490134060382843,0.11477190256118774,0.07850193977355957,-0.13338695466518402,0.12115403264760971,0.14987917244434357,-0.049261175096035004,-0.048296645283699036,0.18873313069343567,-0.05058637633919716,-0.03491361811757088,0.01041899248957634,-0.008903677575290203,0.18719592690467834,-0.005550193600356579,-0.1392083615064621,0.037060897797346115,-0.1938876062631607,-0.004068912006914616,-0.02774558961391449,-0.006049659568816423,-0.15100060403347015,-0.078460194170475,-0.05642427131533623,-0.11160589754581451,0.10413464903831482,-0.051781777292490005,-0.20084884762763977,-0.10144778341054916,0.14694970846176147,-0.007448085118085146,0.1293003112077713,-0.08893558382987976,-0.047262828797101974,0.021031051874160767,0.04564113914966583,-0.19317439198493958,-0.03362675756216049,-0.05747714266180992,0.03764748200774193,0.09976677596569061,-0.05186466872692108,0.09765183925628662,0.12333562970161438,-0.1247546374797821,0.04728727042675018,0.1612442135810852,-0.11162355542182922,-0.18912020325660706,0.057011641561985016,-0.0654253289103508,-0.16183151304721832,-0.18491241335868835,0.01166362501680851,0.11747276037931442,-0.1751217246055603,-0.18989579379558563,-0.15201139450073242,-0.0019045170629397035,0.1467200666666031,-0.17203395068645477,0.15837368369102478,0.13093769550323486,0.08352502435445786,0.00426412234082818,-0.03533708676695824,-0.139590322971344,-0.0537802055478096,0.05526170879602432,-0.0498758889734745,-0.17786531150341034,-0.1971772164106369,0.029416389763355255,0.14518791437149048,0.08175524324178696,0.0009059961303137243,0.11132092028856277,-0.03997519612312317,0.05907229334115982,0.10243140906095505,0.14092044532299042,0.13736432790756226,0.09500031173229218,-0.098659947514534,-0.11053994297981262,0.16100181639194489,-0.15982571244239807,0.024167409166693687,-0.004393945448100567,-0.002541525987908244,-0.10250990837812424,-0.11230693757534027,0.12957407534122467,0.025190088897943497,0.20763112604618073,0.1557682752609253,0.11789114028215408,0.02010619267821312,0.19565357267856598,0.05734983831644058,0.12669041752815247,-0.0862838625907898,0.1525103747844696,0.0739356204867363,-0.13087572157382965,0.09118157625198364,-0.028120243921875954,-0.09544174373149872,-0.1626960188150406,0.20196326076984406,0.028057914227247238,-0.09173084795475006,-0.027505530044436455,0.08100608736276627,-0.04676482453942299,0.10919193923473358,0.12990447878837585,-0.0520189106464386,-0.1119479089975357,0.17883436381816864,-0.1849232017993927,0.030214058235287666,-0.03417862951755524,0.01112276315689087,-0.07245737314224243,-0.17222626507282257,-0.04511772468686104,0.0612001046538353,-0.20888729393482208,0.04711093753576279,-0.027711911126971245,-0.14706332981586456,-0.02847597748041153,-0.001745677087455988,0.017887989059090614,0.11938083916902542,0.14598672091960907,0.1547764241695404,0.10968714952468872,0.18080677092075348,-0.0534188374876976,0.1312738060951233,-0.1505241096019745,-0.08511532843112946,-0.09284569323062897,0.11064358800649643,-0.09656857699155807,-0.18164022266864777,0.16906793415546417,-0.013627906329929829,0.15032388269901276,-0.10545972734689713,-0.13970471918582916,0.09461911767721176,-0.11046243458986282,-0.17742303013801575,-0.10511259734630585,-0.17952001094818115],[-0.06383063644170761,-0.009300676174461842,-0.30745163559913635,0.08170843869447708,-0.28033602237701416,-0.01798068732023239,0.13379444181919098,-0.07458340376615524,0.18478508293628693,0.026937680318951607,-0.10979139059782028,-0.11698775738477707,-0.012491081841289997,-0.21203161776065826,-0.05768745392560959,-0.20613405108451843,-0.1971738487482071,-0.05611741542816162,0.15824976563453674,-0.230668306350708,-0.09969187527894974,-0.07496529817581177,-0.17893943190574646,-0.102432481944561,-0.1643984317779541,-0.14745286107063293,-0.17456571757793427,-0.0033409332390874624,-0.054478876292705536,-0.18601636588573456,-0.19576537609100342,-0.2277859002351761,0.09305155277252197,0.0796184092760086,0.05503886938095093,-0.1357833594083786,-0.046130068600177765,0.10915827006101608,0.09507685154676437,-0.1552354395389557,-0.18663270771503448,0.02837725356221199,-0.18174545466899872,0.044728510081768036,0.054706621915102005,0.08023086190223694,0.06795148551464081,0.014161033555865288,0.15935689210891724,-0.20863257348537445,0.07109879702329636,-0.02174956165254116,-0.16394953429698944,0.07228823006153107,0.08547785878181458,-0.19742421805858612,-0.07562972605228424,-0.17985621094703674,0.17203417420387268,-0.05200004577636719,-0.15991534292697906,0.16053424775600433,-0.16632646322250366,0.17267011106014252,-0.02668921835720539,0.0728423073887825,0.13659551739692688,0.049152374267578125,-0.077016681432724,0.12305140495300293,0.16458424925804138,-0.11235011368989944,0.11144289374351501,0.0802304595708847,-0.052303463220596313,-0.11627344787120819,0.12086731940507889,-0.05617937073111534,-0.08955725282430649,0.052217353135347366,-0.16750819981098175,-0.1251683235168457,0.045916393399238586,-0.1387411504983902,0.1974119246006012,-0.009869681671261787,-0.13938957452774048,0.20974653959274292,-0.07086838781833649,0.12746591866016388,-0.11652430891990662,0.12917983531951904,0.2352234125137329,0.09634144604206085,0.09988877177238464,-0.06287677586078644,0.1282276213169098,0.224951833486557,0.24056383967399597,-0.13517670333385468,0.10977232456207275,-0.15875065326690674,0.020117688924074173,-0.002989891218021512,-0.061732325702905655,-0.10490958392620087,-0.10716649889945984,-0.03432163968682289,-0.16851162910461426,0.18485380709171295,-0.037843622267246246,0.03538650646805763,0.1545640379190445,0.05099792033433914,0.07573758810758591,0.19056470692157745,0.048008162528276443,0.16212943196296692,-0.14519599080085754,0.18654027581214905,0.07230335474014282,-0.10258714854717255,-0.1653207391500473,-0.06398559361696243,-0.22005794942378998,0.017354460433125496,0.11817921698093414,0.13441261649131775,-0.08092574030160904,0.007978308014571667,-0.05709061399102211,0.02581183612346649,0.13202710449695587,-0.2213962972164154,-0.23179909586906433,-0.14581991732120514,0.04887140542268753,-0.06856640428304672,0.07760946452617645,0.16272373497486115,-0.03702981770038605,-0.11508098244667053,-0.15505149960517883,0.007564983796328306,-0.11022268980741501,-0.11005271226167679,-0.17124396562576294,-0.14668618142604828,-0.09194419533014297,-0.014549429528415203,0.17517617344856262,0.0907917320728302,0.12428632378578186,0.007855987176299095,-0.10781320929527283,0.19025033712387085,0.07876191288232803,0.18186715245246887,0.12379774451255798,-0.05821619927883148,0.07188256084918976],[0.2558000981807709,-0.09287726134061813,-0.3282083570957184,0.08428147435188293,-0.04782935604453087,-0.2720825970172882,-0.09412277489900589,-0.23398591578006744,0.20491619408130646,0.09958623349666595,-0.03021167777478695,-0.005865985527634621,0.1174079179763794,-0.023204484954476357,-0.2696438431739807,-0.04487059265375137,0.07880197465419769,0.13180729746818542,-0.029482513666152954,0.00583850871771574,-0.11184938251972198,0.037143122404813766,-0.283314973115921,-0.3019210994243622,-0.14346709847450256,0.08484714478254318,-0.0017694650450721383,0.014793380163609982,-0.17245660722255707,0.05243571475148201,-0.1491459459066391,-0.20491863787174225,-0.10004543513059616,0.14223088324069977,-0.1817648857831955,0.049794502556324005,0.1532103568315506,0.044669702649116516,-0.22607645392417908,-0.15342268347740173,-0.28218185901641846,-0.20950156450271606,0.121817946434021,-0.11045243591070175,0.17190957069396973,0.10458413511514664,-0.17945846915245056,-0.009703596122562885,-0.16141140460968018,-0.22884386777877808,-0.1863044798374176,-0.012250461615622044,-0.07121025770902634,-0.0864606723189354,-0.1585167944431305,-0.20125935971736908,0.0997556820511818,-0.042097192257642746,0.009519238956272602,0.0373368039727211,-0.005855820141732693,-0.07043558359146118,-0.13505037128925323,-0.08115633577108383,-0.07631724327802658,-0.12256041169166565,0.04480857402086258,0.019820358604192734,-0.12038663029670715,0.06864017248153687,-0.17133037745952606,-0.22139717638492584,0.03988758474588394,-0.1282210350036621,0.01725129224359989,0.15373443067073822,-0.02274768427014351,0.16502006351947784,0.16178208589553833,0.1922360211610794,0.010752007365226746,0.17393149435520172,0.22610002756118774,-0.003963348921388388,-0.11177323013544083,0.2106390744447708,-0.12088104337453842,0.11191903054714203,0.14056336879730225,0.35047462582588196,0.14848172664642334,-0.024902641773223877,-0.014847160317003727,0.2596738338470459,0.11682643741369247,0.047172661870718,0.12572269141674042,-0.054650064557790756,0.12053506821393967,0.15824998915195465,-0.0033438587561249733,0.12455984205007553,0.16609598696231842,0.1956205517053604,0.1607300490140915,0.30626633763313293,0.09188520163297653,0.12187431752681732,0.009232800453901291,0.15995857119560242,0.12402806431055069,0.243862584233284,-0.04850664734840393,-0.06586051732301712,0.009666441939771175,0.14229513704776764,-0.03674344718456268,0.21918924152851105,-0.14477986097335815,0.11763772368431091,-0.09887339919805527,-0.02097715064883232,-0.04557965323328972,-0.15008461475372314,-0.1137116551399231,0.05284261330962181,0.03716842830181122,-0.16000109910964966,-0.2004903256893158,-0.24048292636871338,-0.11649011820554733,0.019083568826317787,-0.09414616972208023,-0.03582684323191643,-0.20557387173175812,-0.11603226512670517,-0.11840710043907166,0.04026258364319801,-0.22838996350765228,0.1115325465798378,-0.224079892039299,0.053879331797361374,-0.05987714231014252,-0.10136134177446365,0.04929701238870621,0.06522901356220245,0.08409398049116135,-0.08502228558063507,0.056556351482868195,-0.06438104808330536,0.03232881426811218,-0.09231375902891159,-0.1526951938867569,0.16696588695049286,0.21882759034633636,-0.10261983424425125,-0.10346857458353043,0.17892830073833466,-0.16645772755146027,0.12263176590204239,0.19769006967544556],[-0.030648453161120415,-0.0638900175690651,-0.029148079454898834,0.023856474086642265,-0.29307428002357483,-0.2885168790817261,0.025578614324331284,-0.06302972882986069,0.27077844738960266,0.004311713390052319,0.21246646344661713,-0.05248362198472023,-0.22951526939868927,-0.2505086064338684,-0.20093220472335815,-0.07528866827487946,-0.08068933337926865,-0.0535183921456337,-0.16151468455791473,-0.21474219858646393,-0.13496561348438263,-0.156554713845253,-0.31993645429611206,-0.22984281182289124,-0.029246393591165543,0.06488581746816635,-0.27985039353370667,-0.19419537484645844,0.011293545365333557,0.07564965635538101,-0.011708039790391922,-0.017959434539079666,-0.16253919899463654,-0.13610275089740753,0.052070096135139465,-0.0690358504652977,0.08161626011133194,0.11534019559621811,0.04094822704792023,0.1330213099718094,-0.16826149821281433,0.06797502189874649,0.03085460513830185,0.012864320538938046,0.026613589376211166,-0.08524826169013977,0.07679002732038498,-0.1619122326374054,-0.0204616691917181,-0.19829100370407104,-0.07884877175092697,-0.16133345663547516,0.12818606197834015,0.13006316125392914,-0.10134387016296387,-0.10647141188383102,-0.13816863298416138,-0.20970124006271362,-0.1904684156179428,-0.0796724259853363,0.12189456075429916,0.16526751220226288,0.04834044724702835,0.015526329167187214,-0.27943503856658936,-0.1727885901927948,-0.10400412231683731,0.035706598311662674,0.14985497295856476,-0.14137272536754608,-0.21297477185726166,-0.07778284698724747,-0.10230317711830139,0.031206626445055008,-0.07643165439367294,-0.11796065419912338,0.07098446786403656,0.33527907729148865,0.23332847654819489,-0.06591292470693588,-0.06163635477423668,0.0749061182141304,0.11097556352615356,0.2687107026576996,0.07428404688835144,0.22869250178337097,0.060033075511455536,0.10706774890422821,-0.0788666233420372,0.27709734439849854,0.1367880254983902,0.033871788531541824,0.037978071719408035,-0.04066074639558792,-0.0582190603017807,0.07803849130868912,0.07160374522209167,0.20356273651123047,0.26379793882369995,0.20804746448993683,-0.02872285060584545,0.03096984326839447,-0.13390667736530304,-0.0057167732156813145,0.2965075373649597,0.29163163900375366,-0.1168251559138298,0.055669624358415604,-0.08163540810346603,0.21333880722522736,-0.03476054221391678,0.2328929305076599,-0.07529965788125992,0.15245114266872406,0.03229103982448578,0.29384416341781616,0.0644867792725563,0.13778555393218994,0.19447311758995056,0.030012572184205055,0.21363671123981476,-0.10060671716928482,0.02492327243089676,0.015367376618087292,-0.12463745474815369,-0.12198522686958313,-0.05978039279580116,-0.1242026537656784,-0.15542571246623993,-0.10102444887161255,-0.06598879396915436,-0.052847933024168015,-0.12611623108386993,0.019932661205530167,-0.24467039108276367,0.08560456335544586,0.11480964720249176,-0.18715958297252655,-0.02987954579293728,-0.06964682042598724,-0.25138986110687256,-0.07809935510158539,-0.1760832667350769,-0.1497618854045868,0.01715860888361931,-0.12112396955490112,-0.010230202227830887,0.06778652220964432,-0.09482157975435257,0.03619512543082237,-0.039293572306632996,-0.024563385173678398,0.16300517320632935,-0.03539743274450302,0.14012236893177032,0.2265876978635788,0.04421572759747505,0.05486534163355827,0.11156997829675674,-0.12349534034729004,0.02149992063641548],[-0.026877649128437042,-0.03707944601774216,-0.07864418625831604,0.1777862161397934,-0.1553759127855301,-0.08518613129854202,-0.05618710443377495,0.06700320541858673,0.12455892562866211,0.11578911542892456,0.04293418675661087,-0.11849486827850342,0.14229029417037964,-0.12926514446735382,-0.09032223373651505,0.06244773045182228,0.21002274751663208,-0.0905570536851883,0.20540247857570648,-0.13554070889949799,0.15726035833358765,-0.09080768376588821,-0.0645177960395813,0.18888512253761292,-0.04677138477563858,0.1695508509874344,-0.05629991367459297,0.15555830299854279,-0.043282248079776764,-0.046461593359708786,-0.1006222739815712,0.18765434622764587,-0.034529801458120346,0.18468734622001648,0.06342470645904541,0.039490703493356705,-0.016624847427010536,0.2050962895154953,-0.043559033423662186,-0.10111361742019653,0.14018657803535461,0.0018323510885238647,-0.02120186947286129,-0.04348737746477127,0.022627105936408043,0.20240572094917297,0.07732169330120087,0.028165770694613457,0.10350290685892105,-0.05415638908743858,0.11412617564201355,0.1138138547539711,0.19948378205299377,0.1369999349117279,0.1597396433353424,0.10895124077796936,0.13523158431053162,0.07700009644031525,-0.15808972716331482,0.18098098039627075,0.14717678725719452,0.0822444036602974,0.08434431999921799,-0.1177309900522232,0.20216012001037598,-0.16265961527824402,-0.10064966231584549,0.06002865731716156,0.001339550013653934,-0.06702885031700134,-0.14570742845535278,-0.1788586527109146,0.02708926983177662,0.07400890439748764,0.018833640962839127,-0.06676023453474045,-0.040358513593673706,-0.16330397129058838,-0.09752636402845383,-0.148334339261055,-0.1474900245666504,0.001894020359031856,0.012491273693740368,-0.1323285549879074,-0.21435828506946564,-0.05099280923604965,0.14991408586502075,-0.031602367758750916,0.1564345508813858,-0.2611204981803894,0.0902383103966713,-0.13487988710403442,-0.08280591666698456,-0.12515243887901306,-0.06342488527297974,-0.06904323399066925,-0.009246865287423134,-0.1321120709180832,-0.19832684099674225,-0.08688031882047653,-0.1557631492614746,0.17015309631824493,-0.1080574169754982,0.11973867565393448,0.017745235934853554,-0.171755850315094,0.15815469622612,0.1424744725227356,-0.002214510226622224,0.13422641158103943,0.035846758633852005,-0.09201798588037491,0.033226367086172104,0.07850468903779984,-0.008108928799629211,-0.20799440145492554,0.13878481090068817,0.005913546774536371,-0.015875957906246185,-0.22199486196041107,-0.11198632419109344,0.07260995358228683,-0.105959452688694,0.11658152937889099,0.18454495072364807,0.19184459745883942,-0.14979709684848785,0.024376653134822845,0.06416483968496323,0.17746782302856445,0.14188168942928314,0.1669088900089264,-0.003110464895144105,0.14765062928199768,-0.04021070897579193,-0.09752631187438965,0.19753068685531616,0.045906513929367065,-0.17502142488956451,-0.12137217074632645,-0.1571449190378189,-0.0579218752682209,-0.008952866308391094,0.15732182562351227,0.061123110353946686,0.2304477095603943,0.02867427095770836,-0.05671023204922676,-0.04639546200633049,-0.002302234759554267,0.0075096855871379375,-0.0338728129863739,0.06445913016796112,0.004246605094522238,-0.18291854858398438,-0.07226637750864029,-0.12644799053668976,0.0669402927160263,0.020482778549194336,-0.11670449376106262,0.04775923490524292],[-0.053322192281484604,-0.13591352105140686,0.054865602403879166,-0.10563059896230698,0.11246443539857864,-0.1463353931903839,-0.1549442559480667,-0.03549397364258766,0.028815802186727524,-0.154898002743721,0.1224602460861206,0.141063392162323,0.06613799929618835,0.07718148082494736,-0.05294118821620941,0.16909396648406982,-0.0684882327914238,-0.060432229191064835,0.16449524462223053,0.1234179437160492,-0.13747014105319977,-0.07857488095760345,-0.021334489807486534,0.17121733725070953,0.058306045830249786,0.015260975807905197,0.09502024203538895,-0.02246815524995327,0.13917207717895508,0.06328979134559631,-0.14672988653182983,-0.06298571825027466,-0.0021443248260766268,-0.07546671479940414,0.14742858707904816,-0.0691259354352951,-0.026734797284007072,-0.07605507224798203,0.20334073901176453,0.14483031630516052,0.16278260946273804,-0.016846776008605957,0.10351672023534775,0.08040878176689148,-0.035514067858457565,-0.010084368288516998,0.13697825372219086,0.18190930783748627,-0.15847040712833405,-0.004216366913169622,0.028310611844062805,-0.10125459730625153,-0.13883690536022186,-0.010448453016579151,-0.10263491421937943,-0.18621206283569336,0.18828541040420532,-0.06307420879602432,0.0959993526339531,-0.14798575639724731,-0.10561884939670563,-0.12243762612342834,0.08534418791532516,0.11439800262451172,-0.09601154923439026,0.025607911869883537,-0.10386456549167633,-0.06901830434799194,-0.07639068365097046,-0.1390734314918518,0.0493575818836689,0.09574521332979202,-0.014177609235048294,-0.022277584299445152,0.0988282784819603,0.05530780553817749,-0.1398831605911255,0.09294135123491287,0.06797071546316147,-0.03594948351383209,-0.1065502017736435,-0.19128771126270294,-0.06668002158403397,-0.04992971569299698,0.031859055161476135,-0.03750782087445259,0.06595054268836975,-0.19402073323726654,0.03685159608721733,-0.24428918957710266,-0.17943008244037628,-0.13584290444850922,0.054961156100034714,-0.15558141469955444,0.1309739351272583,-0.0703243836760521,0.08587505668401718,-0.13850298523902893,0.09101679921150208,0.15032382309436798,-0.011193216778337955,0.054253119975328445,-0.03092382661998272,-0.085749551653862,0.0750909075140953,0.17101451754570007,-0.1922486424446106,0.14945557713508606,0.1093745306134224,0.18550002574920654,-0.060820501297712326,0.1439117193222046,0.17359508574008942,-0.14328424632549286,0.16300354897975922,0.02593100070953369,-0.037304043769836426,-0.10946853458881378,-0.04985100403428078,0.09149687737226486,-0.013010337017476559,0.14059162139892578,0.17580704391002655,-0.05452142655849457,0.18212999403476715,0.11544091999530792,0.13231313228607178,-0.10618657618761063,0.0230600256472826,-0.08755775541067123,0.009392756037414074,-0.014665700495243073,0.08920958638191223,0.1493643969297409,-0.1272084265947342,-0.1254456341266632,-0.019499773159623146,0.11684935539960861,-0.18832014501094818,0.08087851852178574,0.025902066379785538,-0.18031249940395355,-0.08275178074836731,-0.09118790924549103,0.10145169496536255,0.2068568766117096,0.1640409380197525,-0.0034453305415809155,0.17222145199775696,-0.07690805941820145,0.11340202391147614,0.009535124525427818,0.17938147485256195,0.01957942359149456,-0.17903150618076324,-0.0033378307707607746,0.09436534345149994,0.022865712642669678,0.07957596331834793,0.14691470563411713,0.1280861645936966],[-0.2696656286716461,-0.06768937408924103,0.2927928566932678,0.21962998807430267,0.1587940752506256,0.06638532131910324,-0.019877858459949493,0.08474820107221603,0.012267558835446835,-0.11682986468076706,-0.18818552792072296,-0.02602429874241352,0.2055457979440689,0.16465316712856293,0.21000811457633972,-0.0339382067322731,0.16681478917598724,0.1844848245382309,0.005827675107866526,0.08818494528532028,0.08545022457838058,0.2084120661020279,0.266059935092926,0.11724274605512619,-0.03848175331950188,0.137287899851799,0.12985970079898834,-0.09004205465316772,0.1176181212067604,0.011360516771674156,0.17442543804645538,0.16156738996505737,-0.05264431610703468,0.00721089169383049,0.07592447847127914,0.033042099326848984,0.17390379309654236,0.10355520248413086,-0.08927598595619202,0.05504777655005455,0.2473660558462143,0.12380664050579071,0.16532519459724426,-0.04182904586195946,0.024080103263258934,-0.09975207597017288,0.04645446687936783,-0.03115575946867466,0.06208820641040802,0.05286290869116783,-0.06953612715005875,0.08030777424573898,-0.08505934476852417,-0.02832053042948246,0.1389809399843216,-0.0854041576385498,0.24321697652339935,0.02466820925474167,0.18464425206184387,-0.11135376244783401,0.20742571353912354,0.22334063053131104,0.11457190662622452,-0.15733759105205536,0.06679170578718185,0.21810507774353027,0.1846994161605835,0.06491389125585556,-0.011394649744033813,0.18356116116046906,0.03944993391633034,0.08866307139396667,0.1967868208885193,-0.21942709386348724,0.02998577244579792,-0.18358753621578217,-0.26121172308921814,-0.26487958431243896,-0.2755100429058075,-0.1902068555355072,-0.0015297491336241364,-0.1739204227924347,-0.05153464153409004,-0.05100884661078453,-0.24317540228366852,-0.12497323006391525,0.11067941039800644,-0.07187428325414658,-0.10967358201742172,-0.33697134256362915,-0.18144968152046204,-0.21748222410678864,-0.14025744795799255,0.0839470773935318,0.03453592583537102,-0.2482159286737442,0.007980585098266602,-0.0035554757341742516,-0.07939702272415161,-0.068405881524086,-0.14468063414096832,0.08165955543518066,-0.10082054138183594,-0.09383556246757507,-0.022664861753582954,-0.17622791230678558,0.012618045322597027,0.05834273248910904,0.10708554089069366,-0.1741991490125656,-0.0939878299832344,0.09285398572683334,-0.10464709252119064,-0.13999523222446442,-0.20820845663547516,-0.29486069083213806,-0.028672905638813972,0.10898502171039581,0.09362787753343582,-0.08562257140874863,-0.0009369743056595325,-0.03703515976667404,-0.002005886286497116,-0.1124720424413681,-0.0800817683339119,0.20698679983615875,0.22506551444530487,0.17254264652729034,0.13165204226970673,0.16215819120407104,0.18589536845684052,0.3062432110309601,-0.018699893727898598,0.2776946425437927,-0.07870335131883621,0.06866997480392456,0.056410856544971466,0.18214190006256104,0.08168492466211319,0.00777636980637908,0.05301213264465332,-0.060983698815107346,-0.0035172742791473866,0.01753656379878521,0.12977755069732666,0.09539006650447845,-0.02415236085653305,-0.2088180035352707,-0.0119424844160676,-0.09189309179782867,-0.12373907119035721,-0.1015603318810463,-0.16880987584590912,-0.13940463960170746,-0.13666437566280365,0.05783460661768913,0.022305965423583984,-0.22917872667312622,0.05876105651259422,0.02358406037092209,0.062850221991539],[-0.06598079204559326,0.2003011852502823,0.02318919077515602,-0.08430145680904388,0.13377605378627777,0.09198589622974396,0.021270684897899628,-0.12851038575172424,0.13660860061645508,-0.1825866401195526,-0.02011795900762081,0.09326360374689102,0.04057912155985832,-0.11767703294754028,0.013988119550049305,0.13207781314849854,-0.002541403518989682,0.1670076996088028,0.058559730648994446,0.18371669948101044,-0.051023051142692566,-0.03415707126259804,-0.023748241364955902,0.03163072466850281,-0.10991999506950378,-0.046491604298353195,0.12765227258205414,0.014313137158751488,0.20599548518657684,0.1428554654121399,0.006208166945725679,0.1385696679353714,-0.1573784500360489,-0.03135596960783005,-0.005876348353922367,0.19901078939437866,0.16932350397109985,-0.12710492312908173,-0.016424061730504036,-0.1384916603565216,0.11251731961965561,-0.11554979532957077,0.11353517323732376,0.00029001565417274833,-0.1391497552394867,0.03564492240548134,0.14051304757595062,-0.19321078062057495,-0.020062817260622978,0.16430428624153137,-0.008636918850243092,-0.03978735953569412,0.20206911861896515,0.16880056262016296,-0.06223563849925995,0.01215117797255516,-0.03532131388783455,0.027393784373998642,0.1514827162027359,0.0745234563946724,0.17258015275001526,-0.11750151216983795,0.057737912982702255,0.12434452027082443,-0.16491267085075378,0.11632955074310303,0.07949461042881012,-0.18231254816055298,0.012898129411041737,-0.11173393577337265,0.15514905750751495,-0.05099332332611084,0.08643994480371475,0.09552665054798126,0.16164885461330414,0.03339507803320885,-0.14241208136081696,0.06903796643018723,0.065992072224617,-0.05475308373570442,-0.10968731343746185,-0.09766102582216263,0.1627822369337082,-0.18377946317195892,-0.1819271743297577,-0.14439508318901062,-0.16688193380832672,0.10477931797504425,-0.07538479566574097,-0.1889946311712265,-0.0806097611784935,0.030174773186445236,-0.01825692504644394,-0.16815263032913208,0.0998891070485115,0.12275380641222,-0.15950626134872437,0.04773831367492676,0.047251950949430466,0.04929826408624649,-0.12600603699684143,0.04361485689878464,0.06870242208242416,-0.19463995099067688,-0.02691326104104519,0.030614258721470833,-0.00524288322776556,0.1442570835351944,-0.04064154624938965,-0.2022431343793869,-0.20331136882305145,0.08933538943529129,0.16792069375514984,-0.012225795537233353,0.0515296645462513,-0.19359207153320312,0.1779485046863556,-0.1322464793920517,-0.02236059308052063,0.10862580686807632,0.17293697595596313,0.03200175240635872,0.10211174935102463,-0.03821851313114166,0.02328897826373577,-0.005966757889837027,-0.037181973457336426,-0.18915240466594696,0.03278442472219467,-0.14557933807373047,0.10815615206956863,0.10238975286483765,-0.1576482504606247,0.1950380504131317,-0.15469031035900116,-0.04522143304347992,0.16382835805416107,0.04348223656415939,0.0001952477905433625,-0.04812096804380417,-0.06142077594995499,-0.07512442767620087,0.08246826380491257,0.19570207595825195,0.1862649768590927,-0.1373504251241684,-0.04821797460317612,0.0737832561135292,-0.0815843716263771,0.1565610021352768,0.07065373659133911,0.06956510990858078,-0.03123285435140133,0.10527107119560242,-0.07125195115804672,0.038244638592004776,0.12398727983236313,-0.16256026923656464,0.16668055951595306,-0.09229767322540283,-0.15955708920955658],[0.048249658197164536,0.011012077331542969,-0.14612741768360138,-0.0057944804430007935,-0.09113926440477371,-0.1494106650352478,0.08680632710456848,-0.11839798092842102,0.12308744341135025,-0.12054415792226791,0.14786116778850555,0.12570782005786896,-0.1577826589345932,-0.17655086517333984,-0.11611196398735046,-0.014068655669689178,0.04046320542693138,0.16834980249404907,0.13796237111091614,-0.09385871887207031,0.008526710793375969,-0.15168669819831848,-0.27561068534851074,-0.21002039313316345,0.142990380525589,0.13950073719024658,0.0665607750415802,-0.05030399560928345,-0.1909489929676056,-0.11738546937704086,-0.11887892335653305,-0.24755649268627167,0.016147630289196968,0.10949341952800751,0.15692608058452606,-0.17066839337348938,-0.022654393687844276,-0.07594925910234451,0.15230554342269897,0.011676664464175701,0.08247999101877213,-0.066756971180439,-0.04496635124087334,-0.08930947631597519,-0.1644877791404724,0.18284614384174347,-0.20136071741580963,0.1775481104850769,-0.03593332692980766,-0.21207982301712036,-0.14067181944847107,-0.21324633061885834,0.0417703315615654,-0.08085297048091888,0.10506832599639893,-0.045976608991622925,-0.20416699349880219,0.08743400871753693,0.043035078793764114,0.017229972407221794,0.01631980575621128,-0.1408814787864685,0.06594046950340271,0.01381389144808054,-0.061264488846063614,-0.16122785210609436,-0.14899501204490662,0.06498270481824875,-0.16107188165187836,0.0569140687584877,0.057327840477228165,0.11534228920936584,-0.20944400131702423,0.02353787049651146,-0.14571934938430786,-0.12092535197734833,0.12232694029808044,-0.05017445236444473,0.04591115564107895,-0.08062344789505005,-0.1604076474905014,0.23852600157260895,0.13264061510562897,0.1934201717376709,0.04663658142089844,-0.03500903397798538,0.07976158708333969,0.0450265072286129,-0.0427098385989666,-0.08429793268442154,0.10302339494228363,-0.01999128796160221,-0.021644575521349907,0.08960404247045517,0.07696639746427536,0.1323629766702652,0.040638722479343414,0.1669626384973526,-0.0914599671959877,0.10567501187324524,-0.02721843495965004,0.010134266689419746,0.053034842014312744,-0.11913822591304779,0.2493925243616104,-0.12799520790576935,-0.17472746968269348,0.07042324542999268,-0.1484089344739914,0.18706673383712769,-0.02608436532318592,0.1578783243894577,-0.09965937584638596,-0.061585232615470886,0.205623060464859,-0.1333417147397995,0.047441042959690094,0.1845548003911972,-0.002847252879291773,0.2053489089012146,-0.1703193187713623,0.15651430189609528,0.12356504052877426,-0.1808537393808365,0.08652423322200775,-0.0004600367392413318,-0.09361674636602402,0.09356051683425903,0.04308384284377098,-0.02533470094203949,0.06202084198594093,-0.23792263865470886,-0.08387435972690582,0.11086411029100418,-0.14394330978393555,0.08681482821702957,0.036095984280109406,-0.1475151926279068,0.017733344808220863,0.016979707404971123,-0.18531498312950134,-0.21662242710590363,-0.08090509474277496,0.15257862210273743,-0.1161808967590332,0.09121072292327881,0.1254744529724121,-0.0890703797340393,0.18927210569381714,0.12737540900707245,-0.11691083014011383,-0.17719648778438568,0.16721464693546295,0.052755117416381836,0.21436047554016113,-0.11606130003929138,-0.06049283221364021,0.07121521979570389,-0.03895796090364456,0.17319117486476898,0.1616448163986206],[0.12015992403030396,-0.086122065782547,-0.13276295363903046,-0.11940830945968628,-0.0245872363448143,0.20875529944896698,-0.08952168375253677,-0.18022197484970093,-0.11842195689678192,-0.19925910234451294,0.15608899295330048,-0.10901618748903275,0.09610265493392944,0.17677538096904755,-0.15608754754066467,-0.08827738463878632,-0.09982311725616455,-0.14423377811908722,-0.10244043171405792,-0.1473674327135086,0.03725285828113556,-0.07482700049877167,-0.016658512875437737,-0.0055534448474645615,-0.03791658580303192,-0.14502857625484467,0.08967727422714233,0.13309355080127716,-0.06069870665669441,0.0308158528059721,-0.0003502843901515007,0.06254977732896805,0.08498095721006393,-0.07299120724201202,0.19631585478782654,-0.15647287666797638,0.10950879007577896,0.006100569386035204,0.17104721069335938,0.010709762573242188,-0.048265241086483,0.060551732778549194,0.16233369708061218,-0.1413450986146927,0.08330018818378448,-0.17948712408542633,0.2013407200574875,0.04080114886164665,-0.02376551926136017,-0.06512487679719925,0.2088700234889984,-0.009841670282185078,0.1270323246717453,-0.03823264688253403,-0.10835660994052887,0.13685579597949982,0.14129552245140076,-0.02618653140962124,-0.01150713674724102,0.113704152405262,0.18772126734256744,0.17745278775691986,0.04876788705587387,0.07401291280984879,0.14291635155677795,-0.012657979503273964,0.14509768784046173,0.02623182348906994,0.1867671012878418,-0.001848842715844512,0.041219357401132584,-0.01956438459455967,0.06939652562141418,0.07372818142175674,-0.2120904177427292,0.13835537433624268,-0.13790689408779144,-0.15084466338157654,-0.184278205037117,0.13915488123893738,0.05534350499510765,-0.16771893203258514,-0.14546795189380646,-0.15896841883659363,0.14100666344165802,-0.07282128930091858,0.052022308111190796,-0.18861247599124908,-0.02589440532028675,-0.12699593603610992,0.10533291101455688,0.07155068218708038,-0.01261973101645708,-0.21083608269691467,-0.14865612983703613,-0.17296791076660156,0.0993615984916687,0.007222218904644251,0.08046561479568481,-0.043245021253824234,-0.03128562495112419,0.18318307399749756,0.010979840531945229,0.024720771238207817,-0.06736282259225845,0.055369600653648376,-0.09875226020812988,0.13523413240909576,0.015451117418706417,0.1892617642879486,-0.04228011518716812,-0.06595683842897415,-0.03554258495569229,-0.07006045430898666,-0.1559177041053772,-0.21792690455913544,0.17303481698036194,-0.021010003983974457,-0.09117107838392258,0.04568561539053917,-0.09765041619539261,0.19172748923301697,-0.14306843280792236,0.13860000669956207,0.03652400150895119,0.1426657736301422,-0.0448591373860836,-0.03231999650597572,0.14852918684482574,0.09213164448738098,-0.030553651973605156,-0.07951430231332779,0.03500742092728615,0.07996542006731033,-0.04029494524002075,0.04775426536798477,-0.0503452904522419,-0.0731811597943306,-0.05780704692006111,-0.0007365415804088116,-0.03360724821686745,-0.09031166881322861,0.22029170393943787,-0.14372839033603668,0.12903766334056854,0.14627039432525635,0.07606414705514908,0.0067052822560071945,-0.05350911617279053,-0.09694357961416245,0.12557323276996613,-0.1697719544172287,0.1712225377559662,-0.07823427766561508,0.14632539451122284,-0.17058216035366058,-0.19216828048229218,0.10889574140310287,0.12951414287090302,0.15837503969669342,0.033692020922899246],[0.1590033918619156,-0.2187056839466095,-0.0001106205236283131,0.11872629821300507,0.06342118978500366,0.01781998760998249,-0.07766834646463394,-0.23792381584644318,0.059779539704322815,0.03293116018176079,0.2189047485589981,0.16512851417064667,-0.0015296359779313207,-0.039702408015728,0.007120382972061634,-0.07768648117780685,-0.17499366402626038,-0.11233264952898026,-0.0403246246278286,-0.17185428738594055,-0.18487128615379333,-0.14265860617160797,0.007182831410318613,-0.10545794665813446,0.10122998058795929,-0.15240062773227692,-0.053198911249637604,0.09011080861091614,0.11781664937734604,-0.2126637101173401,0.013541359454393387,-0.13241097331047058,-0.034996312111616135,0.054720666259527206,0.1268606036901474,-0.06565740704536438,-0.18181318044662476,-0.11351550370454788,0.11311037093400955,0.005878502037376165,0.08207806199789047,0.01959843747317791,-0.08167789876461029,0.18312273919582367,-0.044991783797740936,-0.11567503958940506,0.021612223237752914,0.09151735156774521,0.03975551947951317,-0.1048058494925499,0.0031277835369110107,-0.013681921176612377,-0.053941089659929276,0.0280474666506052,-0.13307632505893707,-0.17619752883911133,0.07360276579856873,0.051013704389333725,0.07470032572746277,-0.13880470395088196,-0.013732699677348137,-0.19224940240383148,-0.020688273012638092,0.0673767477273941,-0.1202065497636795,-0.06844230741262436,0.06206603720784187,-0.08896216005086899,0.0722561627626419,-0.01637502945959568,0.02289622649550438,-0.13617874681949615,-0.12195093184709549,-0.16551734507083893,-0.15116773545742035,-0.09256915748119354,-0.11264676600694656,0.1633991152048111,-0.029345916584134102,-0.05070072412490845,0.08274327218532562,0.1695721596479416,-0.09757360070943832,-0.14342337846755981,0.05919286236166954,0.04202079772949219,0.0033270027488470078,-0.11610483378171921,0.14951081573963165,0.08973506838083267,0.14185264706611633,-0.09677638858556747,0.04988371208310127,0.21340703964233398,0.186346635222435,0.2030288428068161,0.10018901526927948,0.22602787613868713,0.23418337106704712,-0.08019597828388214,0.037140317261219025,-0.08169616013765335,-0.1749054491519928,0.06169140338897705,0.21846015751361847,0.23669025301933289,0.12897607684135437,0.02744031883776188,0.1453150510787964,0.20934727787971497,-0.13001255691051483,-0.12484128028154373,0.17698602378368378,0.004239572212100029,-0.043733906000852585,0.0965830534696579,0.21409927308559418,-0.12496678531169891,0.16448542475700378,0.0870368480682373,0.14122585952281952,-0.18170936405658722,0.046462658792734146,-0.10040467977523804,0.06831185519695282,0.022146455943584442,-0.03557664155960083,-0.051997654139995575,0.028896477073431015,-0.14529716968536377,-0.18681477010250092,0.11995943635702133,0.08828846365213394,-0.02748442441225052,0.12834928929805756,-0.1104774996638298,0.03657345101237297,0.10594309866428375,-0.006645843852311373,-0.09604345262050629,-0.15125511586666107,-0.09635516256093979,-0.0017593734664842486,-0.14620888233184814,-0.012775840237736702,-0.12995153665542603,-0.03323046490550041,-0.16936911642551422,-0.07298096269369125,0.07122176140546799,0.07832960039377213,0.15201644599437714,-0.09301749616861343,-0.16249895095825195,-0.16208595037460327,-0.028387518599629402,-0.04545902833342552,-0.026548121124505997,0.0958552286028862,-0.08441668003797531,0.025959964841604233],[-0.1397574543952942,-0.15399706363677979,-0.14188344776630402,0.006943514104932547,0.03875478729605675,-0.08990122377872467,0.10263154655694962,0.1164383515715599,-0.1624898612499237,0.06186732277274132,-0.15733985602855682,-0.01672266237437725,-0.0707281231880188,0.10303391516208649,0.14863285422325134,-0.1756792962551117,-0.027545945718884468,-0.12032949924468994,0.10926534235477448,-0.1537264734506607,-0.17785495519638062,0.014128460548818111,0.053987208753824234,-0.1541263908147812,-0.157718688249588,0.15135252475738525,-0.18111518025398254,0.09570888429880142,0.09039866924285889,0.14576496183872223,0.14856255054473877,0.029668519273400307,-0.0958063080906868,-0.18455184996128082,0.04398900642991066,0.1423678696155548,0.1815839260816574,-0.14894473552703857,0.15165694057941437,0.033559512346982956,0.13951422274112701,0.10037492960691452,-0.034162379801273346,-0.1462697833776474,0.1861802637577057,0.053633034229278564,-0.031230730935931206,0.19113487005233765,0.11070558428764343,0.05176859349012375,-0.00561169721186161,0.13982965052127838,-0.04631638899445534,-0.031492672860622406,0.10357140749692917,-0.022044098004698753,0.1369832158088684,0.15562865138053894,0.1484202891588211,0.11321275681257248,0.1700821965932846,0.07612834870815277,0.0019205308053642511,-0.001696737832389772,0.028104117140173912,0.029226288199424744,0.046721894294023514,-0.05091189220547676,-0.16613273322582245,-0.026946846395730972,-0.11765608936548233,0.17898216843605042,-0.04564754292368889,0.09996678680181503,-0.09269692748785019,-0.03395199775695801,0.02187618985772133,0.1350051760673523,-0.08510762453079224,-0.1941080093383789,0.046216752380132675,0.16993708908557892,-0.15721482038497925,-0.11420159786939621,-0.032751474529504776,-0.004398950841277838,-0.11797245591878891,-0.0722145363688469,0.14782841503620148,0.18122044205665588,0.022442782297730446,-0.10290131717920303,0.03464631363749504,0.14360283315181732,0.008571377955377102,0.001174903241917491,-0.1764371246099472,-0.1655936986207962,0.08885365724563599,0.1412283033132553,-0.1323283165693283,0.06096853315830231,0.04173428937792778,0.10522507131099701,-0.12351222336292267,0.1505713313817978,-0.17884793877601624,0.13192006945610046,0.11012721806764603,-0.17196182906627655,-0.059399642050266266,-0.03593369200825691,0.18410062789916992,-0.004346779547631741,-0.12532122433185577,-0.20531243085861206,0.012964530847966671,0.09335216879844666,-0.040307894349098206,-0.17983263731002808,0.04302311688661575,-0.16501854360103607,-0.16622789204120636,0.07075093686580658,-0.18188098073005676,0.04314347356557846,-0.0990864634513855,-0.16324858367443085,-0.08564355224370956,0.15181051194667816,0.12134494632482529,0.024519633501768112,-0.05141998082399368,0.08233656734228134,0.14604325592517853,-0.029531052336096764,-0.054374027997255325,-0.009632997214794159,-0.13512638211250305,-0.1542539745569229,-0.17578266561031342,0.06848511099815369,0.13633158802986145,0.04087099805474281,-0.09109879285097122,0.1631392240524292,-0.08325496315956116,0.10830141603946686,-0.013622170314192772,0.1235957071185112,0.12250771373510361,0.009223687462508678,0.02848283387720585,-0.1846364140510559,-0.04771934077143669,-0.15390929579734802,-0.0016143593238666654,-0.1747966706752777,0.07770482450723648,-0.1537143886089325,-0.18709734082221985],[-0.016310909762978554,-0.17507097125053406,-0.12522825598716736,-0.14976827800273895,-0.031008372083306313,0.08570604026317596,-0.16111119091510773,-0.07005756348371506,0.018662206828594208,0.11417105793952942,0.0887729749083519,0.002755525056272745,0.0805600956082344,-0.24567413330078125,-0.03502742946147919,0.013113784603774548,-0.1954936683177948,-0.007491409312933683,-0.08662686496973038,-0.14188583195209503,-0.2342817783355713,0.12135415524244308,-0.16383425891399384,-0.1656327098608017,-0.08693492412567139,-0.09193094074726105,-0.18683044612407684,-0.19910985231399536,-0.14202190935611725,-0.16842003166675568,-0.14551407098770142,-0.20232011377811432,0.06086259335279465,-0.19261537492275238,-0.1798095405101776,0.1089271605014801,-0.11577672511339188,-0.048831116408109665,-0.06803972274065018,0.16222873330116272,0.04326082020998001,-0.13018926978111267,-0.15045621991157532,0.12578944861888885,-0.1596258133649826,0.14286375045776367,0.11757024377584457,-0.16024446487426758,-0.14366206526756287,-0.10731843113899231,0.06450437009334564,-0.019017675891518593,0.11798625439405441,0.09169686585664749,-0.047622863203287125,-0.18787400424480438,0.13167192041873932,-0.028718799352645874,-0.07918141782283783,-0.11648701876401901,-0.10582029819488525,0.06886743754148483,-0.1500704437494278,-0.04074128717184067,-0.1780431717634201,0.03628382086753845,-0.08950507640838623,-0.049219828099012375,0.13057178258895874,0.10083353519439697,-0.21354210376739502,0.169441819190979,-0.03992954269051552,-0.12081757187843323,-0.129258930683136,0.08508634567260742,0.06753882020711899,0.284006267786026,-0.06432125717401505,-0.1095736175775528,-0.09115541726350784,-0.057845838367938995,0.06593472510576248,0.13626541197299957,-0.0008331710123457015,0.11256030201911926,-0.09700723737478256,-0.058471985161304474,0.019739340990781784,0.24589236080646515,0.21118757128715515,-0.17025241255760193,0.009025560691952705,-0.139325812458992,-0.06375133246183395,-0.09559489786624908,0.1123889908194542,0.10384649783372879,0.02016468718647957,-0.14550457894802094,0.0650349035859108,0.04447803646326065,0.08111449331045151,0.1736915558576584,0.13227558135986328,-0.010732500813901424,-0.17346052825450897,0.025272933766245842,-0.043548256158828735,-0.058292653411626816,0.21598955988883972,-0.06361953169107437,-0.035046424716711044,-0.013550810515880585,-0.08345168828964233,0.16614122688770294,0.14526060223579407,-0.08542002737522125,0.12992778420448303,0.10179788619279861,-0.05349383130669594,0.03859811648726463,0.1533040553331375,-0.03215806558728218,-0.0620574951171875,-0.00408682506531477,-0.22857820987701416,-0.1696845442056656,0.03824576735496521,-0.015542052686214447,-0.0235456433147192,-0.12292074412107468,-0.2171265333890915,0.11644922941923141,-0.12238757312297821,-0.16159775853157043,-0.01277487725019455,-0.10729596763849258,-0.15891455113887787,-0.00235823355615139,-0.12014134973287582,0.062067124992609024,-0.1975463479757309,-0.1003216803073883,-0.13346169888973236,-0.07735385000705719,0.11860133707523346,-0.1039634719491005,0.00045494711957871914,-0.06548038870096207,0.07229400426149368,-0.09459257870912552,-0.06826893985271454,-0.07470603287220001,0.05823400989174843,0.16650505363941193,-0.06852062046527863,0.03608657047152519,0.11662963777780533,0.07038857787847519,-0.016020843759179115],[0.09831265360116959,-0.23574581742286682,-0.1570805162191391,-0.20579034090042114,0.04248497262597084,-0.04585554450750351,0.028235778212547302,0.08720926940441132,-0.134551540017128,0.09410892426967621,-0.05410557612776756,-0.062400463968515396,-0.16509519517421722,-0.024543654173612595,-0.22113165259361267,0.14494095742702484,-0.02270791307091713,-0.1483294814825058,0.03269694000482559,-0.06177341938018799,-0.057279713451862335,-0.010826069861650467,-0.026862645521759987,-0.21153591573238373,0.06836961954832077,0.1179652288556099,-0.20853185653686523,-0.15833111107349396,-0.1014799103140831,-0.2027999460697174,-0.19026276469230652,-0.251999169588089,0.04458530247211456,-0.19077076017856598,-0.07209472358226776,-0.07991506159305573,0.14080610871315002,-0.1889856904745102,0.013119813986122608,0.06996335089206696,-0.22789549827575684,0.1398272067308426,-0.19539232552051544,-0.0731772631406784,0.12412188947200775,0.010905317030847073,0.09905975311994553,-0.12101886421442032,0.011214042082428932,-0.0023890098091214895,-0.03888509050011635,-0.20715904235839844,-0.15524664521217346,-0.21676643192768097,0.14140115678310394,-0.035064030438661575,-0.017919745296239853,-0.09410499781370163,-0.06277283281087875,-0.02102290466427803,0.11416712403297424,0.15623171627521515,-0.13411110639572144,-0.15070463716983795,-0.04805035516619682,0.17943605780601501,0.13263379037380219,0.12021047621965408,0.09820997714996338,0.017719902098178864,-0.007939526811242104,-0.1647268384695053,-0.2157147228717804,0.09089606255292892,-0.057960718870162964,0.1316036880016327,0.14780080318450928,0.2660749554634094,-0.10630527883768082,0.18995125591754913,0.056422844529151917,0.19064930081367493,-0.025945071130990982,0.0918266624212265,-0.07839139550924301,-0.06236869841814041,0.1887916773557663,-0.0895981416106224,0.13668744266033173,0.21943075954914093,-0.11225299537181854,0.15270894765853882,0.02824806608259678,0.0776543915271759,-0.07200033217668533,0.1649669110774994,0.16876378655433655,0.08289430290460587,0.18410739302635193,-0.08264041692018509,0.1374359428882599,-0.06865890324115753,-0.10680115222930908,0.2060493677854538,-0.009639768861234188,-0.08814706653356552,-0.16182036697864532,-0.14713656902313232,-0.11714190989732742,-0.10046477615833282,0.21323363482952118,0.20436905324459076,-0.027994049713015556,-0.008435150608420372,0.16457940638065338,0.17999015748500824,0.0065845949575304985,0.02928919531404972,0.05034623295068741,-0.05271496623754501,0.08567198365926743,-0.14662091434001923,0.11066228896379471,-0.21026067435741425,-0.21715465188026428,0.035237837582826614,-0.1325937956571579,-0.0022090203128755093,-0.18087168037891388,-0.08217276632785797,0.1195514127612114,-0.07403941452503204,-0.1783527135848999,-0.15306897461414337,-0.06824485212564468,-0.03188337758183479,-0.20760732889175415,-0.009286961518228054,-0.01221331488341093,0.0034722252748906612,0.08437470346689224,-0.13526102900505066,0.11548233032226562,-0.16713997721672058,-0.1940121352672577,0.12010110914707184,0.053564075380563736,-0.1826491504907608,-0.03500019386410713,0.05031698942184448,-0.0672207847237587,0.09943140298128128,0.03838692605495453,-0.026687389239668846,-0.18138562142848969,0.19686919450759888,0.00842368695884943,0.04429228603839874,0.09408798068761826,-0.13166019320487976,-0.05607450753450394],[0.17696063220500946,-0.042552679777145386,-0.08576302975416183,-0.11816060543060303,-0.15791240334510803,0.005627986043691635,-0.03974660113453865,-0.10869335383176804,0.1793004274368286,0.10209149122238159,0.098829485476017,-0.09970221668481827,-0.07969742268323898,0.03201659768819809,-0.057598404586315155,-0.016151299700140953,0.15330171585083008,-0.08746656775474548,-0.11965607106685638,-0.08677677810192108,-0.15511395037174225,0.02878991700708866,-0.14855119585990906,0.14536070823669434,0.19782519340515137,-0.09344793111085892,0.07074835151433945,-0.019569259136915207,0.09613623470067978,-0.0643940344452858,0.16141091287136078,0.07315670698881149,0.16465114057064056,0.18424463272094727,0.0649910643696785,0.1273067742586136,0.10012268275022507,